{"learner":{"attributes":{"scikit_learn":"{\"_estimator_type\": \"classifier\"}"},"feature_names":["red","green","blue","Y","cblue","cred"],"feature_types":["float","float","float","float","float","float"],"gradient_booster":{"model":{"gbtree_model_param":{"num_parallel_tree":"1","num_trees":"100"},"iteration_indptr":[0,1,2,3,4,5,6,7,8,9,10,11,12,13,14,15,16,17,18,19,20,21,22,23,24,25,26,27,28,29,30,31,32,33,34,35,36,37,38,39,40,41,42,43,44,45,46,47,48,49,50,51,52,53,54,55,56,57,58,59,60,61,62,63,64,65,66,67,68,69,70,71,72,73,74,75,76,77,78,79,80,81,82,83,84,85,86,87,88,89,90,91,92,93,94,95,96,97,98,99,100],"tree_info":[0,0,0,0,0,0,0,0,0,0,0,0,0,0,0,0,0,0,0,0,0,0,0,0,0,0,0,0,0,0,0,0,0,0,0,0,0,0,0,0,0,0,0,0,0,0,0,0,0,0,0,0,0,0,0,0,0,0,0,0,0,0,0,0,0,0,0,0,0,0,0,0,0,0,0,0,0,0,0,0,0,0,0,0,0,0,0,0,0,0,0,0,0,0,0,0,0,0,0,0],"trees":[{"base_weights":[-8.190906E-2,-4.4080952E-1,7.046366E-1,-1.5426444E-1,-7.1063215E-1,-3.902934E-1,9.7509277E-1,-3.8378513E-1,1.0215548E0,-1.147505E0,-5.630858E-1,-3.0044502E-1,5.5997066E-2,1.2915004E0,-5.1938146E-1,-4.8145074E-1,3.1947926E-1,1.4551406E0,-5.3743392E-2,-9.097816E-2,-3.6849973E-1,-1.9876449E-1,-9.41901E-1,6.6064155E-1,-6.417708E-1,1.5235883E0,4.6780342E-1,-3.1196788E-1,2.9329696E-1,-7.881356E-1,-1.0151557E-1,1.6480095E0,9.1258615E-2,-4.148804E-2,-2.86038E-1,-1.0367607E0,4.5104645E-2,3.1727025E-1,6.6551017E-3,-5.8458168E-2,-2.2706096E-1,9.2755497E-1,2.123084E0,-1.6487215E-1,1.0777104E0,3.906922E-1,-2.2706096E-1,-5.578204E-2,-3.326103E-1,-1.650387E-1,2.0987026E-1,5.8633703E-1,9.1258615E-2,-7.061187E-2,2.3433594E-1,-3.2452706E-1,-5.8458168E-2,6.0899687E-1,8.457246E-2,6.8274444E-1,1.8118745E-1,8.798909E-2,-2.2706096E-1,5.497124E-1,-9.097816E-2],"categories":[],"categories_nodes":[],"categories_segments":[],"categories_sizes":[],"default_left":[0,0,0,0,0,0,0,0,0,0,0,0,0,0,0,0,0,0,0,0,0,0,0,0,0,0,0,0,0,0,0,0,0,0,0,0,0,0,0,0,0,0,0,0,0,0,0,0,0,0,0,0,0,0,0,0,0,0,0,0,0,0,0,0,0],"id":0,"left_children":[1,3,5,7,9,11,13,15,17,19,21,-1,23,25,27,29,-1,31,-1,-1,-1,33,35,37,39,41,43,-1,45,47,49,51,-1,53,-1,55,-1,-1,-1,-1,-1,57,59,61,63,-1,-1,-1,-1,-1,-1,-1,-1,-1,-1,-1,-1,-1,-1,-1,-1,-1,-1,-1,-1],"loss_changes":[3.5049435E1,6.4713135E0,1.191279E1,1.1877024E1,2.1617165E0,2.3549702E0,1.5573078E1,5.6534843E0,4.0212574E0,3.121996E-1,4.5777826E0,0E0,2.8786712E0,4.3141403E0,2.9359722E0,3.9664078E0,0E0,7.010803E-1,0E0,0E0,0E0,2.1999183E0,1.8819265E0,8.9134586E-1,1.754868E-2,5.202797E0,2.9650235E0,0E0,4.3853097E0,3.4748135E0,6.371716E0,1.2227154E0,0E0,2.8408217E0,0E0,3.7465668E-1,0E0,0E0,0E0,0E0,0E0,7.855857E0,7.672577E-1,1.418911E0,4.5269704E0,0E0,0E0,0E0,0E0,0E0,0E0,0E0,0E0,0E0,0E0,0E0,0E0,0E0,0E0,0E0,0E0,0E0,0E0,0E0,0E0],"parents":[2147483647,0,0,1,1,2,2,3,3,4,4,5,5,6,6,7,7,8,8,9,9,10,10,12,12,13,13,14,14,15,15,17,17,21,21,22,22,23,23,24,24,25,25,26,26,28,28,29,29,30,30,31,31,33,33,35,35,41,41,42,42,43,43,44,44],"right_children":[2,4,6,8,10,12,14,16,18,20,22,-1,24,26,28,30,-1,32,-1,-1,-1,34,36,38,40,42,44,-1,46,48,50,52,-1,54,-1,56,-1,-1,-1,-1,-1,58,60,62,64,-1,-1,-1,-1,-1,-1,-1,-1,-1,-1,-1,-1,-1,-1,-1,-1,-1,-1,-1,-1],"split_conditions":[9.8250496E1,1.6702386E2,1.1427721E2,1.4225351E2,1.5231682E2,1.2811836E2,1.4653337E2,1.6607585E2,1.523833E2,1.4688774E2,1.8043803E2,-3.0044502E-1,1.1001912E2,1.5446404E2,1.5545961E2,1.274596E2,3.1947926E-1,1.6418733E2,-5.3743392E-2,-9.097816E-2,-3.6849973E-1,1.6580417E2,1.7930711E2,1.347174E2,1.119962E2,1.5053114E2,1.4450598E2,-3.1196788E-1,1.5133855E2,1.5947992E2,1.227868E2,1.450967E2,9.1258615E-2,1.6503748E2,-2.86038E-1,1.6110606E2,4.5104645E-2,3.1727025E-1,6.6551017E-3,-5.8458168E-2,-2.2706096E-1,1.3617192E2,1.5417888E2,1.3895116E2,1.3017879E2,3.906922E-1,-2.2706096E-1,-5.578204E-2,-3.326103E-1,-1.650387E-1,2.0987026E-1,5.8633703E-1,9.1258615E-2,-7.061187E-2,2.3433594E-1,-3.2452706E-1,-5.8458168E-2,6.0899687E-1,8.457246E-2,6.8274444E-1,1.8118745E-1,8.798909E-2,-2.2706096E-1,5.497124E-1,-9.097816E-2],"split_indices":[5,0,2,2,1,1,1,0,2,3,0,0,2,0,0,2,0,0,0,0,0,1,1,3,2,0,3,0,3,0,4,2,0,3,0,2,0,0,0,0,0,3,0,1,2,0,0,0,0,0,0,0,0,0,0,0,0,0,0,0,0,0,0,0,0],"split_type":[0,0,0,0,0,0,0,0,0,0,0,0,0,0,0,0,0,0,0,0,0,0,0,0,0,0,0,0,0,0,0,0,0,0,0,0,0,0,0,0,0,0,0,0,0,0,0,0,0,0,0,0,0,0,0,0,0,0,0,0,0,0,0,0,0],"sum_hessian":[1.22060074E2,8.411706E1,3.7943016E1,4.1556637E1,4.256042E1,7.427998E0,3.0515018E1,3.533318E1,6.223458E0,9.034052E0,3.3526367E1,2.609837E0,4.818161E0,2.5295343E1,5.219674E0,3.3727127E1,1.6060536E0,4.4166474E0,1.8068103E0,1.2045403E0,7.829511E0,1.7867346E1,1.5659022E1,2.609837E0,2.2083237E0,1.9071886E1,6.223458E0,3.0113504E0,2.2083237E0,1.8068104E1,1.5659022E1,3.412864E0,1.0037835E0,1.5659022E1,2.2083237E0,1.4454482E1,1.2045403E0,1.2045403E0,1.4052969E0,1.0037835E0,1.2045403E0,1.0840861E1,8.231025E0,3.412864E0,2.8105938E0,1.0037835E0,1.2045403E0,6.825728E0,1.1242375E1,1.0238591E1,5.4204307E0,2.4090805E0,1.0037835E0,1.3249942E1,2.4090805E0,1.3450699E1,1.0037835E0,3.2121072E0,7.6287546E0,7.0264845E0,1.2045403E0,2.2083237E0,1.2045403E0,1.6060536E0,1.2045403E0],"tree_param":{"num_deleted":"0","num_feature":"6","num_nodes":"65","size_leaf_vector":"1"}},{"base_weights":[-6.902565E-2,-3.4820145E-1,4.7543192E-1,-1.09771036E-1,-5.864731E-1,-5.497838E-1,6.123663E-1,-2.9789096E-1,7.374319E-1,-1.0240122E0,-4.4859222E-1,-2.973238E-1,9.36697E-2,8.1693214E-1,-2.866847E-1,-3.8301703E-1,2.3773971E-1,1.0225295E0,-4.417559E-2,-7.81267E-2,-3.3185327E-1,-1.1455461E-1,-8.1225824E-1,5.9867287E-1,1.6360964E0,-6.990382E-1,3.962112E-1,-8.4723574E-1,-1.9062126E-1,1.1339493E0,7.576849E-2,2.7027793E-2,-2.541054E-1,-9.0577865E-1,4.317422E-2,8.435601E-1,-4.2162564E-1,5.4603E-1,1.6023721E-1,-2.8566496E-2,-2.7697462E-1,3.4880763E-1,-2.034259E-1,-3.2637984E-1,-7.921953E-2,-2.507185E-1,-1.2662406E-2,3.914939E-1,7.576849E-2,-3.716412E-2,1.7049278E-1,-6.394929E-2,-2.8442898E-1,3.0550715E-1,-9.1585495E-2,-2.74699E-1,2.0220816E-2],"categories":[],"categories_nodes":[],"categories_segments":[],"categories_sizes":[],"default_left":[0,0,0,0,0,0,0,0,0,0,0,0,0,0,0,0,0,0,0,0,0,0,0,0,0,0,0,0,0,0,0,0,0,0,0,0,0,0,0,0,0,0,0,0,0,0,0,0,0,0,0,0,0,0,0,0,0],"id":1,"left_children":[1,3,5,7,9,11,13,15,17,19,21,-1,-1,23,25,27,-1,29,-1,-1,-1,31,33,35,37,39,41,43,45,47,-1,49,-1,51,-1,53,55,-1,-1,-1,-1,-1,-1,-1,-1,-1,-1,-1,-1,-1,-1,-1,-1,-1,-1,-1,-1],"loss_changes":[1.8362543E1,4.4643717E0,6.092801E0,6.7660146E0,1.9321012E0,2.3476906E0,6.973529E0,3.4893858E0,2.1055627E0,2.5896645E-1,3.7847538E0,0E0,0E0,4.4041004E0,2.3980732E0,2.7422915E0,0E0,2.2730684E-1,0E0,0E0,0E0,1.8691214E0,1.4823122E0,6.6903954E0,1.9535065E-1,5.968909E-1,3.6491382E0,1.0091729E0,2.288979E0,4.1574955E-1,0E0,1.3682073E0,0E0,2.0557499E-1,0E0,4.4836626E0,1.4084102E0,0E0,0E0,0E0,0E0,0E0,0E0,0E0,0E0,0E0,0E0,0E0,0E0,0E0,0E0,0E0,0E0,0E0,0E0,0E0,0E0],"parents":[2147483647,0,0,1,1,2,2,3,3,4,4,5,5,6,6,7,7,8,8,9,9,10,10,13,13,14,14,15,15,17,17,21,21,22,22,23,23,24,24,25,25,26,26,27,27,28,28,29,29,31,31,33,33,35,35,36,36],"right_children":[2,4,6,8,10,12,14,16,18,20,22,-1,-1,24,26,28,-1,30,-1,-1,-1,32,34,36,38,40,42,44,46,48,-1,50,-1,52,-1,54,56,-1,-1,-1,-1,-1,-1,-1,-1,-1,-1,-1,-1,-1,-1,-1,-1,-1,-1,-1,-1],"split_conditions":[9.8250496E1,1.6702386E2,1.0891738E2,1.4225351E2,1.5558931E2,1.5228587E2,1.4566267E2,1.6607585E2,1.523833E2,1.4688774E2,1.8043803E2,-2.973238E-1,9.36697E-2,1.4472482E2,1.5545961E2,9.214735E1,2.3773971E-1,1.6418733E2,-4.417559E-2,-7.81267E-2,-3.3185327E-1,1.6580417E2,1.6283308E2,1.5392712E2,1.309024E2,1.4640427E2,1.5133855E2,1.5043367E2,1.5744485E2,1.450967E2,7.576849E-2,1.6503748E2,-2.541054E-1,6.0959953E1,4.317422E-2,1.4365425E2,1.5534111E2,5.4603E-1,1.6023721E-1,-2.8566496E-2,-2.7697462E-1,3.4880763E-1,-2.034259E-1,-3.2637984E-1,-7.921953E-2,-2.507185E-1,-1.2662406E-2,3.914939E-1,7.576849E-2,-3.716412E-2,1.7049278E-1,-6.394929E-2,-2.8442898E-1,3.0550715E-1,-9.1585495E-2,-2.74699E-1,2.0220816E-2],"split_indices":[5,0,2,2,3,0,1,0,2,3,0,0,0,3,0,5,0,0,0,0,0,1,2,0,2,1,3,3,0,2,0,3,0,5,0,3,0,0,0,0,0,0,0,0,0,0,0,0,0,0,0,0,0,0,0,0,0],"split_type":[0,0,0,0,0,0,0,0,0,0,0,0,0,0,0,0,0,0,0,0,0,0,0,0,0,0,0,0,0,0,0,0,0,0,0,0,0,0,0,0,0,0,0,0,0,0,0,0,0,0,0,0,0,0,0,0,0],"sum_hessian":[1.1871756E2,7.871577E1,4.0001793E1,4.0074883E1,3.864088E1,4.3581057E0,3.564369E1,3.332378E1,6.751104E0,7.7190733E0,3.092181E1,2.7834435E0,1.5746622E0,2.9111204E1,6.5324845E0,3.1512283E1,1.8114972E0,4.9878945E0,1.7632092E0,1.1549778E0,6.5640955E0,1.6802883E1,1.4118927E1,2.435331E1,4.7578955E0,4.0583124E0,2.4741719E0,8.236174E0,2.327611E1,3.9443908E0,1.0435039E0,1.4888158E1,1.9147248E0,1.2909036E1,1.2098914E0,1.9779217E1,4.574092E0,3.5186827E0,1.2392126E0,1.4846714E0,2.5736413E0,1.3959323E0,1.0782396E0,5.217261E0,3.0189123E0,3.4872048E0,1.9788904E1,2.9008868E0,1.0435039E0,1.2245321E1,2.6428363E0,1.0909388E0,1.1818096E1,1.7265802E1,2.513415E0,1.841408E0,2.732684E0],"tree_param":{"num_deleted":"0","num_feature":"6","num_nodes":"57","size_leaf_vector":"1"}},{"base_weights":[-6.4954154E-2,-3.4858504E-1,2.576582E-1,-2.404172E-1,-6.9753814E-1,-3.5671413E-1,3.728374E-1,-4.609057E-1,3.3362123E-1,-7.8516454E-1,3.5851315E-2,-7.5860626E-1,-9.721593E-3,5.000313E-1,-4.0492398E-1,-2.9550678E-1,-7.198918E-1,1.5106393E0,-8.5496224E-2,-8.322736E-1,-3.654391E-2,-6.2845536E-2,-2.6345354E-1,5.61942E-1,-1.9806962E-1,4.0537274E-1,4.721804E-1,-7.959046E-2,-2.5096375E-1,-4.0865117E-1,1.938468E-1,-8.0509895E-1,-2.4381699E-2,6.201748E-1,2.9739153E-2,-3.589994E-1,2.7185002E-1,-2.785632E-1,-9.266137E-2,-1.8244062E-2,3.1355622E-1,1.923638E-2,5.693614E-1,-5.6789273E-1,2.604004E-1,-2.531283E-1,2.0589685E-4,-3.17868E-1,-1.3769902E-1,-1.8633722E-1,2.667532E-2,2.446544E-1,-9.4966404E-2,3.135505E-1,8.697795E-2,4.159956E-2,-2.5976193E-1],"categories":[],"categories_nodes":[],"categories_segments":[],"categories_sizes":[],"default_left":[0,0,0,0,0,0,0,0,0,0,0,0,0,0,0,0,0,0,0,0,0,0,0,0,0,0,0,0,0,0,0,0,0,0,0,0,0,0,0,0,0,0,0,0,0,0,0,0,0,0,0,0,0,0,0,0,0],"id":2,"left_children":[1,3,5,7,9,11,13,15,17,19,-1,21,23,25,27,29,31,33,35,37,-1,-1,-1,39,-1,41,-1,43,-1,45,-1,47,-1,-1,-1,49,-1,-1,-1,-1,-1,51,53,55,-1,-1,-1,-1,-1,-1,-1,-1,-1,-1,-1,-1,-1],"loss_changes":[1.0632124E1,2.162539E0,3.9879708E0,6.311737E0,1.1020565E0,1.2632917E0,4.7892604E0,1.3110003E0,7.075821E0,3.0019617E-1,0E0,9.239006E-2,2.5661201E0,3.458249E0,9.2610526E-1,2.7576203E0,6.5105915E-1,2.742237E0,3.3984282E0,3.091383E-1,0E0,0E0,0E0,1.1716481E0,0E0,2.4192805E0,0E0,2.8694854E0,0E0,3.8309915E0,0E0,5.268941E-1,0E0,0E0,0E0,1.1820592E0,0E0,0E0,0E0,0E0,0E0,3.593889E0,3.273985E0,9.609662E-1,0E0,0E0,0E0,0E0,0E0,0E0,0E0,0E0,0E0,0E0,0E0,0E0,0E0],"parents":[2147483647,0,0,1,1,2,2,3,3,4,4,5,5,6,6,7,7,8,8,9,9,11,11,12,12,13,13,14,14,15,15,16,16,17,17,18,18,19,19,23,23,25,25,27,27,29,29,31,31,35,35,41,41,42,42,43,43],"right_children":[2,4,6,8,10,12,14,16,18,20,-1,22,24,26,28,30,32,34,36,38,-1,-1,-1,40,-1,42,-1,44,-1,46,-1,48,-1,-1,-1,50,-1,-1,-1,-1,-1,52,54,56,-1,-1,-1,-1,-1,-1,-1,-1,-1,-1,-1,-1,-1],"split_conditions":[9.576996E1,1.6557039E2,1.1427721E2,1.5618394E2,1.7930711E2,1.2994069E2,1.4886101E2,1.6678287E2,1.5955397E2,1.1361814E2,3.5851315E-2,9.982878E1,1.1054997E2,1.4793365E2,1.472192E2,1.6607585E2,1.3677956E2,1.5763457E2,1.6503748E2,1.588902E2,-3.654391E-2,-6.2845536E-2,-2.6345354E-1,1.0891738E2,-1.9806962E-1,1.5084038E2,4.721804E-1,1.3933687E2,-2.5096375E-1,1.274596E2,1.938468E-1,1.2528965E2,-2.4381699E-2,6.201748E-1,2.9739153E-2,1.4733138E2,2.7185002E-1,-2.785632E-1,-9.266137E-2,-1.8244062E-2,3.1355622E-1,1.348822E2,1.5417888E2,1.5658606E2,2.604004E-1,-2.531283E-1,2.0589685E-4,-3.17868E-1,-1.3769902E-1,-1.8633722E-1,2.667532E-2,2.446544E-1,-9.4966404E-2,3.135505E-1,8.697795E-2,4.159956E-2,-2.5976193E-1],"split_indices":[5,3,2,1,1,1,1,0,3,4,0,2,2,2,2,0,2,1,3,2,0,0,0,2,0,0,0,2,0,2,0,4,0,0,0,2,0,0,0,0,0,1,0,0,0,0,0,0,0,0,0,0,0,0,0,0,0],"split_type":[0,0,0,0,0,0,0,0,0,0,0,0,0,0,0,0,0,0,0,0,0,0,0,0,0,0,0,0,0,0,0,0,0,0,0,0,0,0,0,0,0,0,0,0,0,0,0,0,0,0,0,0,0,0,0,0,0],"sum_hessian":[1.142129E2,6.0735554E1,5.3477345E1,4.76531E1,1.3082457E1,8.1117525E0,4.5365593E1,3.4571316E1,1.3081781E1,1.1850525E1,1.2319322E0,3.2089105E0,4.902842E0,3.9296234E1,6.069358E0,2.2404142E1,1.2167173E1,2.751196E0,1.03305855E1,1.0826978E1,1.0235463E0,1.0658903E0,2.1430202E0,2.682039E0,2.2208033E0,3.7378963E1,1.9172703E0,4.136148E0,1.9332097E0,2.050627E1,1.8978747E0,1.0504883E1,1.6622903E0,1.6399398E0,1.111256E0,8.597387E0,1.7331989E0,8.491135E0,2.3358438E0,1.5538098E0,1.1282294E0,1.1475485E1,2.5903479E1,2.9940085E0,1.1421397E0,9.425764E0,1.1080504E1,4.8659425E0,5.638941E0,5.1795683E0,3.4178185E0,2.9800663E0,8.495419E0,8.570239E0,1.733324E1,1.0467205E0,1.9472882E0],"tree_param":{"num_deleted":"0","num_feature":"6","num_nodes":"57","size_leaf_vector":"1"}},{"base_weights":[-5.1763415E-2,-3.5055584E-1,1.3612461E-1,-2.3673078E-1,-6.197193E-1,-4.0672585E-1,2.2302312E-1,-4.5617172E-1,8.903731E-2,-7.146224E-1,3.6544908E-2,-7.057871E-1,-3.992931E-2,3.0873457E-1,-2.0154092E-1,-5.4797E-1,1.4070325E-1,6.3147336E-1,-2.4999443E-1,-8.626332E-1,-4.0028307E-1,-7.9001844E-1,-6.1025314E-2,-5.3748524E-1,2.3380046E-1,2.4610431E-1,3.872217E-1,-6.4011484E-1,5.349194E-1,-2.6652396E-1,-8.0848396E-1,4.4256154E-2,3.446525E-1,-5.9938544E-1,2.4958321E-1,-2.8915986E-1,-4.750326E-2,1.2797928E-1,-2.5882885E-1,-8.27374E-2,-2.7194834E-1,5.0797433E-2,-2.5385988E-1,1.7706491E-1,3.7399435E-1,-1.2233509E-2,-2.3431255E-1,2.7218795E-1,-2.8477745E-2,-1.4312245E-1,2.3367034E-1,-2.61454E-1,-5.2777037E-2,2.5943142E-1,-2.3609771E-1,-2.940892E-1,1.8052004E-3,2.7651381E-1,-9.1793135E-2,1.6484594E-1,9.451578E-3],"categories":[],"categories_nodes":[],"categories_segments":[],"categories_sizes":[],"default_left":[0,0,0,0,0,0,0,0,0,0,0,0,0,0,0,0,0,0,0,0,0,0,0,0,0,0,0,0,0,0,0,0,0,0,0,0,0,0,0,0,0,0,0,0,0,0,0,0,0,0,0,0,0,0,0,0,0,0,0,0,0],"id":3,"left_children":[1,3,5,7,9,11,13,15,17,19,-1,21,23,25,27,29,-1,31,33,35,37,39,-1,41,-1,43,-1,45,47,49,51,53,-1,55,57,-1,-1,-1,-1,-1,-1,-1,-1,59,-1,-1,-1,-1,-1,-1,-1,-1,-1,-1,-1,-1,-1,-1,-1,-1,-1],"loss_changes":[6.2317696E0,1.1647696E0,3.3149223E0,2.3069077E0,9.3885803E-1,1.04524E0,2.2297313E0,1.8796546E0,2.6583025E0,1.6072893E-1,0E0,6.485891E-2,2.6425073E0,2.7546344E0,3.769338E0,1.0927291E0,0E0,1.6240847E0,1.7350814E0,3.1285858E-1,2.4130402E0,2.654314E-3,0E0,1.0129688E0,0E0,3.108359E0,0E0,5.6826496E-1,1.1426839E0,2.5877948E0,1.9649553E-1,3.1511753E0,0E0,1.3063085E0,1.9415468E0,0E0,0E0,0E0,0E0,0E0,0E0,0E0,0E0,2.4898124E0,0E0,0E0,0E0,0E0,0E0,0E0,0E0,0E0,0E0,0E0,0E0,0E0,0E0,0E0,0E0,0E0,0E0],"parents":[2147483647,0,0,1,1,2,2,3,3,4,4,5,5,6,6,7,7,8,8,9,9,11,11,12,12,13,13,14,14,15,15,17,17,18,18,19,19,20,20,21,21,23,23,25,25,27,27,28,28,29,29,30,30,31,31,33,33,34,34,43,43],"right_children":[2,4,6,8,10,12,14,16,18,20,-1,22,24,26,28,30,-1,32,34,36,38,40,-1,42,-1,44,-1,46,48,50,52,54,-1,56,58,-1,-1,-1,-1,-1,-1,-1,-1,60,-1,-1,-1,-1,-1,-1,-1,-1,-1,-1,-1,-1,-1,-1,-1,-1,-1],"split_conditions":[9.1578094E1,1.8043803E2,1.1427721E2,1.5618394E2,1.6283308E2,1.0226349E2,1.4967763E2,1.4318524E2,1.593747E2,6.918761E1,3.6544908E-2,1.3979602E2,1.5053114E2,1.5043367E2,1.5511275E2,1.3017879E2,1.4070325E-1,1.5823807E2,1.773539E2,1.786366E2,7.146497E1,1.347174E2,-6.1025314E-2,1.4569786E2,2.3380046E-1,1.4793365E2,3.872217E-1,1.5020767E2,1.450967E2,1.5558931E2,1.5911153E2,1.567363E2,3.446525E-1,1.5163322E2,1.4613216E2,-2.8915986E-1,-4.750326E-2,1.2797928E-1,-2.5882885E-1,-8.27374E-2,-2.7194834E-1,5.0797433E-2,-2.5385988E-1,1.21700005E2,3.7399435E-1,-1.2233509E-2,-2.3431255E-1,2.7218795E-1,-2.8477745E-2,-1.4312245E-1,2.3367034E-1,-2.61454E-1,-5.2777037E-2,2.5943142E-1,-2.3609771E-1,-2.940892E-1,1.8052004E-3,2.7651381E-1,-9.1793135E-2,1.6484594E-1,9.451578E-3],"split_indices":[5,0,2,1,2,5,1,2,1,5,0,3,0,3,3,2,0,1,0,3,5,3,0,0,0,2,0,1,2,3,3,1,0,2,2,0,0,0,0,0,0,0,0,2,0,0,0,0,0,0,0,0,0,0,0,0,0,0,0,0,0],"split_type":[0,0,0,0,0,0,0,0,0,0,0,0,0,0,0,0,0,0,0,0,0,0,0,0,0,0,0,0,0,0,0,0,0,0,0,0,0,0,0,0,0,0,0,0,0,0,0,0,0,0,0,0,0,0,0,0,0,0,0,0,0],"sum_hessian":[1.0915503E2,4.180619E1,6.734884E1,3.0702211E1,1.110398E1,8.785543E0,5.8563297E1,1.8105711E1,1.25965E1,9.876289E0,1.2276909E0,4.3305287E0,4.4550147E0,4.8953358E1,9.609939E0,1.6842304E1,1.2634069E0,4.513122E0,8.083378E0,5.528736E0,4.3475533E0,3.2183323E0,1.1121963E0,2.9856873E0,1.4693277E0,4.719403E1,1.7593261E0,6.1050844E0,3.5048537E0,9.068368E0,7.773936E0,2.6223142E0,1.8908076E0,4.6391196E0,3.4442585E0,4.511672E0,1.0170637E0,1.58725E0,2.760303E0,1.216302E0,2.0020301E0,1.0448927E0,1.9407946E0,4.5248753E1,1.9452811E0,1.4077101E0,4.6973743E0,1.9257941E0,1.5790596E0,8.00067E0,1.0676978E0,6.7259927E0,1.0479429E0,1.2993819E0,1.3229325E0,2.467409E0,2.1717107E0,1.2603681E0,2.1838903E0,1.1935695E1,3.3313057E1],"tree_param":{"num_deleted":"0","num_feature":"6","num_nodes":"61","size_leaf_vector":"1"}},{"base_weights":[-4.1759487E-2,-2.348818E-1,1.5784769E-1,-5.2650815E-1,-1.421929E-1,2.0727348E-1,-1.8337402E-1,-1.2649742E-1,-8.7781703E-1,-2.272156E-3,-5.218046E-1,2.738209E-1,-3.1058466E-1,-5.4247E-1,2.9045928E-1,-8.442927E-2,-2.909094E-1,-1.9271944E-1,2.7185708E-1,2.5699476E-2,-6.1100733E-1,2.173597E-1,3.142241E-1,-3.831043E-2,-2.1192999E-1,-2.6394275E-1,2.1062922E-2,1.9822131E-1,-5.3562737E-1,1.0439879E0,-3.8429573E-2,-2.86753E-1,-8.1060094E-1,-6.320618E-2,3.3756033E-1,-4.624554E-1,2.100711E-1,-1.23303324E-1,1.8465447E-1,-1.9474655E-1,8.2505316E-2,4.0841195E-1,2.9312825E-2,-8.110743E-2,2.0756857E-1,-2.5117457E-1,6.2099893E-2,-2.7724186E-1,-4.7165576E-2,7.7818215E-2,-1.4746594E-1,2.8415573E-1,5.766548E-2,4.0190835E-2,-2.2600807E-1],"categories":[],"categories_nodes":[],"categories_segments":[],"categories_sizes":[],"default_left":[0,0,0,0,0,0,0,0,0,0,0,0,0,0,0,0,0,0,0,0,0,0,0,0,0,0,0,0,0,0,0,0,0,0,0,0,0,0,0,0,0,0,0,0,0,0,0,0,0,0,0,0,0,0,0],"id":4,"left_children":[1,3,5,7,9,11,-1,13,15,17,19,21,23,25,-1,-1,-1,27,29,-1,31,33,-1,35,-1,-1,-1,37,39,41,43,45,47,49,51,53,-1,-1,-1,-1,-1,-1,-1,-1,-1,-1,-1,-1,-1,-1,-1,-1,-1,-1,-1],"loss_changes":[4.155227E0,1.403677E0,2.1463737E0,1.6908379E0,2.2762341E0,1.8312263E0,0E0,3.7874038E0,9.195185E-2,1.740433E0,6.778445E-1,1.7566779E0,6.453065E-1,1.2671744E0,0E0,0E0,0E0,2.7422588E0,3.3150935E0,0E0,4.2692614E-1,1.4918048E0,0E0,1.8128539E0,0E0,0E0,0E0,2.7745094E0,1.1674571E0,1.054513E0,2.0020874E0,1.6490228E0,2.8192854E-1,2.0510294E0,2.536564E0,7.292975E-1,0E0,0E0,0E0,0E0,0E0,0E0,0E0,0E0,0E0,0E0,0E0,0E0,0E0,0E0,0E0,0E0,0E0,0E0,0E0],"parents":[2147483647,0,0,1,1,2,2,3,3,4,4,5,5,7,7,8,8,9,9,10,10,11,11,12,12,13,13,17,17,18,18,20,20,21,21,23,23,27,27,28,28,29,29,30,30,31,31,32,32,33,33,34,34,35,35],"right_children":[2,4,6,8,10,12,-1,14,16,18,20,22,24,26,-1,-1,-1,28,30,-1,32,34,-1,36,-1,-1,-1,38,40,42,44,46,48,50,52,54,-1,-1,-1,-1,-1,-1,-1,-1,-1,-1,-1,-1,-1,-1,-1,-1,-1,-1,-1],"split_conditions":[9.576996E1,1.260878E2,1.4868811E2,1.20543686E2,1.6557039E2,1.4886101E2,-1.8337402E-1,1.1883625E2,1.302658E2,1.5618394E2,6.0959953E1,1.4793365E2,1.472192E2,1.657205E2,2.9045928E-1,-8.442927E-2,-2.909094E-1,1.3391188E2,1.5955397E2,2.5699476E-2,1.7081561E2,1.5053114E2,3.142241E-1,1.3933687E2,-2.1192999E-1,-2.6394275E-1,2.1062922E-2,1.4778635E2,1.4542662E2,1.5763457E2,1.6503748E2,1.8000702E2,1.9281853E2,1.4637828E2,1.5236891E2,1.5658606E2,2.100711E-1,-1.23303324E-1,1.8465447E-1,-1.9474655E-1,8.2505316E-2,4.0841195E-1,2.9312825E-2,-8.110743E-2,2.0756857E-1,-2.5117457E-1,6.2099893E-2,-2.7724186E-1,-4.7165576E-2,7.7818215E-2,-1.4746594E-1,2.8415573E-1,5.766548E-2,4.0190835E-2,-2.2600807E-1],"split_indices":[5,2,4,2,3,1,0,2,4,1,5,2,2,0,0,0,0,2,3,0,3,0,0,2,0,0,0,1,2,1,3,0,0,0,0,0,0,0,0,0,0,0,0,0,0,0,0,0,0,0,0,0,0,0,0],"split_type":[0,0,0,0,0,0,0,0,0,0,0,0,0,0,0,0,0,0,0,0,0,0,0,0,0,0,0,0,0,0,0,0,0,0,0,0,0,0,0,0,0,0,0,0,0,0,0,0,0,0,0,0,0,0,0],"sum_hessian":[1.0583011E2,5.3698986E1,5.2131126E1,1.1822274E1,4.187671E1,4.966961E1,2.461517E0,6.163923E0,5.658352E0,3.1333506E1,1.0543204E1,4.4431217E1,5.2383943E0,4.8321953E0,1.3317277E0,1.2977618E0,4.36059E0,1.8663963E1,1.266954E1,1.3550429E0,9.188162E0,4.2602795E1,1.82842E0,3.7534564E0,1.4849377E0,2.8351634E0,1.9970318E0,8.918335E0,9.745629E0,2.9540253E0,9.715515E0,4.429234E0,4.758928E0,1.2919934E1,2.9682861E1,2.6216717E0,1.1317848E0,3.6315167E0,5.286818E0,8.723191E0,1.0224378E0,1.8835989E0,1.0704263E0,7.851829E0,1.8636866E0,1.7653373E0,2.6638968E0,3.7013495E0,1.0575781E0,7.5946317E0,5.325302E0,4.6522856E0,2.5030577E1,1.0363593E0,1.5853122E0],"tree_param":{"num_deleted":"0","num_feature":"6","num_nodes":"55","size_leaf_vector":"1"}},{"base_weights":[-3.6604345E-2,7.742254E-2,-3.2050085E-1,-9.565517E-2,2.422136E-1,-7.87525E-1,-1.9820441E-1,-2.5104958E-1,-1.3253837E-2,8.120402E-1,3.642791E-2,-3.8481917E-2,-2.704135E-1,2.375564E-1,-2.7399376E-1,-2.869249E-1,3.475463E-1,9.588296E-1,-1.0353889E-2,-1.4610536E-1,3.3464164E-1,-2.2000197E-1,-1.7651123E-1,-4.042701E-1,2.51646E-1,3.0655026E-1,1.4825004E-1,4.0648535E-1,5.487958E-1,6.730638E-2,-7.2733957E-1,7.092397E-1,1.0137107E-1,9.9530384E-2,-4.513833E-1,-2.1232925E-1,-3.1043615E-3,1.7436601E-1,-3.1581815E-2,2.8372934E-1,5.605006E-2,-7.110333E-2,2.419026E-1,1.591587E-2,-2.8693068E-1,-8.177435E-3,3.1715518E-1,-8.9419976E-2,1.655467E-1,-2.08483E-2,1.9159134E-1,-1.6111775E-1,3.423551E-2],"categories":[],"categories_nodes":[],"categories_segments":[],"categories_sizes":[],"default_left":[0,0,0,0,0,0,0,0,0,0,0,0,0,0,0,0,0,0,0,0,0,0,0,0,0,0,0,0,0,0,0,0,0,0,0,0,0,0,0,0,0,0,0,0,0,0,0,0,0,0,0,0,0],"id":5,"left_children":[1,3,5,7,9,11,13,-1,15,17,19,-1,-1,-1,21,23,25,27,-1,29,31,-1,33,35,-1,-1,37,-1,39,41,43,45,47,49,51,-1,-1,-1,-1,-1,-1,-1,-1,-1,-1,-1,-1,-1,-1,-1,-1,-1,-1],"loss_changes":[3.3640478E0,2.145153E0,1.5432863E0,2.248892E0,4.4727E0,3.225758E-1,2.0865042E0,0E0,3.4882762E0,1.2931399E0,1.6413571E0,0E0,0E0,0E0,9.401547E-1,2.9894495E0,1.8984947E0,6.656451E-1,0E0,2.386325E0,9.2528415E-1,0E0,1.6399784E0,2.2455208E0,0E0,0E0,1.4820533E0,0E0,6.7738736E-1,3.4967225E0,9.7064424E-1,1.1083057E0,1.6397341E0,1.074787E0,5.803735E-1,0E0,0E0,0E0,0E0,0E0,0E0,0E0,0E0,0E0,0E0,0E0,0E0,0E0,0E0,0E0,0E0,0E0,0E0],"parents":[2147483647,0,0,1,1,2,2,3,3,4,4,5,5,6,6,8,8,9,9,10,10,14,14,15,15,16,16,17,17,19,19,20,20,22,22,23,23,26,26,28,28,29,29,30,30,31,31,32,32,33,33,34,34],"right_children":[2,4,6,8,10,12,14,-1,16,18,20,-1,-1,-1,22,24,26,28,-1,30,32,-1,34,36,-1,-1,38,-1,40,42,44,46,48,50,52,-1,-1,-1,-1,-1,-1,-1,-1,-1,-1,-1,-1,-1,-1,-1,-1,-1,-1],"split_conditions":[1.6702386E2,1.274596E2,1.5558931E2,1.2811836E2,1.3105496E2,1.15746666E2,1.5675833E2,-2.5104958E-1,1.0069004E2,1.6155402E2,1.4225351E2,-3.8481917E-2,-2.704135E-1,2.375564E-1,1.3316496E2,1.6607585E2,1.0179986E2,1.25571724E2,-1.0353889E-2,1.3818085E2,1.4886101E2,-2.2000197E-1,1.6557039E2,1.3445631E2,2.51646E-1,3.0655026E-1,1.3403131E2,4.0648535E-1,1.282315E2,1.4912933E2,1.4948424E2,1.4793365E2,1.560373E2,1.6503748E2,1.7930711E2,-2.1232925E-1,-3.1043615E-3,1.7436601E-1,-3.1581815E-2,2.8372934E-1,5.605006E-2,-7.110333E-2,2.419026E-1,1.591587E-2,-2.8693068E-1,-8.177435E-3,3.1715518E-1,-8.9419976E-2,1.655467E-1,-2.08483E-2,1.9159134E-1,-1.6111775E-1,3.423551E-2],"split_indices":[0,2,3,1,2,2,3,0,5,0,2,0,0,0,2,0,5,4,0,2,1,0,3,4,0,0,1,0,2,1,0,2,1,3,1,0,0,0,0,0,0,0,0,0,0,0,0,0,0,0,0,0,0],"split_type":[0,0,0,0,0,0,0,0,0,0,0,0,0,0,0,0,0,0,0,0,0,0,0,0,0,0,0,0,0,0,0,0,0,0,0,0,0,0,0,0,0,0,0,0,0,0,0,0,0,0,0,0,0],"sum_hessian":[1.0215244E2,7.339904E1,2.8753403E1,3.6004044E1,3.7395E1,4.838131E0,2.3915272E1,2.6862671E0,3.3317776E1,9.140006E0,2.8254993E1,1.0256858E0,3.8124452E0,1.0287185E0,2.2886553E1,1.9063015E1,1.4254763E1,7.67633E0,1.4636762E0,1.7843346E1,1.0411647E1,2.8647633E0,2.002179E1,1.7843893E1,1.2191219E0,2.3104625E0,1.19443E1,2.7322736E0,4.9440565E0,1.3698039E1,4.145307E0,3.2124727E0,7.1991744E0,1.0307917E1,9.713873E0,9.628775E0,8.215118E0,3.9336972E0,8.010603E0,1.5887612E0,3.3552952E0,1.0183862E1,3.5141776E0,1.1151353E0,3.0301719E0,1.3264397E0,1.8860329E0,3.9949477E0,3.2042267E0,8.510682E0,1.7972348E0,8.479491E0,1.2343823E0],"tree_param":{"num_deleted":"0","num_feature":"6","num_nodes":"53","size_leaf_vector":"1"}},{"base_weights":[-2.1452473E-2,6.939713E-2,-2.5718883E-1,1.5330936E-1,-2.2717413E-1,-7.1387756E-1,-1.4858036E-1,7.243443E-2,7.9815066E-1,-1.19937696E-1,-2.69382E-1,-3.3112552E-2,-2.5044018E-1,2.2688052E-1,-2.2183359E-1,1.7120631E-1,-6.397908E-1,-3.79916E-2,3.5547823E-1,4.661686E-2,-5.6403315E-1,-2.3598248E-1,-1.3575345E-1,2.8824612E-1,-1.5194415E-1,7.098675E-3,-2.793136E-1,-1.4336182E-1,2.6656577E-1,6.7911945E-2,-2.655005E-1,9.262264E-2,-4.2812318E-1,6.0695346E-2,2.4901839E-1,-1.1977151E-1,9.9977024E-2,4.058479E-2,-2.740139E-1,-1.0094201E-1,1.0108572E-1,-1.602726E-1,5.0690662E-2],"categories":[],"categories_nodes":[],"categories_segments":[],"categories_sizes":[],"default_left":[0,0,0,0,0,0,0,0,0,0,0,0,0,0,0,0,0,0,0,0,0,0,0,0,0,0,0,0,0,0,0,0,0,0,0,0,0,0,0,0,0,0,0],"id":6,"left_children":[1,3,5,7,9,11,13,15,17,19,-1,-1,-1,-1,21,23,25,-1,-1,27,29,-1,31,33,35,-1,-1,37,-1,-1,-1,39,41,-1,-1,-1,-1,-1,-1,-1,-1,-1,-1],"loss_changes":[2.1437902E0,1.837565E0,1.274127E0,2.9180036E0,1.0704471E0,2.7882743E-1,1.7415268E0,3.7536843E0,2.3888762E0,1.1561611E0,0E0,0E0,0E0,0E0,9.986448E-1,1.7942417E0,1.2819314E0,0E0,0E0,2.0520215E0,1.2766995E0,0E0,1.4377793E0,1.4299717E0,1.6881369E0,0E0,0E0,2.4147687E0,0E0,0E0,0E0,1.4321073E0,6.8340445E-1,0E0,0E0,0E0,0E0,0E0,0E0,0E0,0E0,0E0,0E0],"parents":[2147483647,0,0,1,1,2,2,3,3,4,4,5,5,6,6,7,7,8,8,9,9,14,14,15,15,16,16,19,19,20,20,22,22,23,23,24,24,27,27,31,31,32,32],"right_children":[2,4,6,8,10,12,14,16,18,20,-1,-1,-1,-1,22,24,26,-1,-1,28,30,-1,32,34,36,-1,-1,38,-1,-1,-1,40,42,-1,-1,-1,-1,-1,-1,-1,-1,-1,-1],"split_conditions":[1.6702386E2,1.3616374E2,1.5558931E2,1.3445631E2,1.1794468E2,1.15746666E2,1.5649524E2,1.3138905E2,1.3606781E2,1.5840971E2,-2.69382E-1,-3.3112552E-2,-2.5044018E-1,2.2688052E-1,1.581336E2,1.4967763E2,1.3834425E2,-3.79916E-2,3.5547823E-1,1.5688292E2,1.0891738E2,-2.3598248E-1,1.8043803E2,1.5043367E2,1.560373E2,7.098675E-3,-2.793136E-1,1.5430997E2,2.6656577E-1,6.7911945E-2,-2.655005E-1,1.0651393E2,1.6283308E2,6.0695346E-2,2.4901839E-1,-1.1977151E-1,9.9977024E-2,4.058479E-2,-2.740139E-1,-1.0094201E-1,1.0108572E-1,-1.602726E-1,5.0690662E-2],"split_indices":[0,4,3,4,2,2,3,4,1,0,0,0,0,0,3,1,1,0,0,0,2,0,0,3,1,0,0,0,0,0,0,4,2,0,0,0,0,0,0,0,0,0,0],"split_type":[0,0,0,0,0,0,0,0,0,0,0,0,0,0,0,0,0,0,0,0,0,0,0,0,0,0,0,0,0,0,0,0,0,0,0,0,0,0,0,0,0,0,0],"sum_hessian":[9.82663E1,7.143993E1,2.6826366E1,5.606102E1,1.5378912E1,4.0833416E0,2.2743025E1,5.0801865E1,5.259156E0,1.42754755E1,1.1034366E0,1.0008874E0,3.0824542E0,1.0049922E0,2.1738033E1,4.5281773E1,5.5200896E0,1.7492502E0,3.509906E0,1.1032755E1,3.24272E0,1.798688E0,1.9939344E1,3.3321342E1,1.1960433E1,1.9643116E0,3.555778E0,9.678559E0,1.3541961E0,1.0216233E0,2.2210968E0,1.1578408E1,8.360936E0,2.9945578E1,3.375764E0,8.039884E0,3.9205499E0,7.7121096E0,1.9664497E0,4.064006E0,7.514403E0,7.188596E0,1.1723408E0],"tree_param":{"num_deleted":"0","num_feature":"6","num_nodes":"43","size_leaf_vector":"1"}},{"base_weights":[-2.5572661E-2,8.200181E-2,-1.6357917E-1,4.362648E-2,2.974803E-1,-4.592425E-1,-7.739719E-2,9.735929E-2,-3.3804405E-1,-7.365255E-1,9.848569E-2,2.9288158E-1,-1.4038701E-1,-2.976039E-1,1.7328534E-1,-4.878417E-1,7.327545E-2,-3.631895E-1,-2.6338542E-1,1.6313262E-1,-1.7571445E-1,-3.2661676E-1,-2.2369398E-2,-7.6755375E-2,-2.3249145E-1,6.4778864E-1,1.1700045E-1,-2.9574195E-3,-2.1394451E-1,7.967732E-2,-2.2303486E-1,6.580837E-2,-4.4831753E-1,7.7433586E-1,-1.8398128E-1,-2.0014942E-1,6.2479768E-2,-5.4792337E-2,2.9283354E-1,-1.8861368E-1,6.91137E-2,-3.4117654E-2,-2.0826565E-1,3.175622E-1,7.356634E-3,-2.2775285E-1,-2.9440718E-2],"categories":[],"categories_nodes":[],"categories_segments":[],"categories_sizes":[],"default_left":[0,0,0,0,0,0,0,0,0,0,0,0,0,0,0,0,0,0,0,0,0,0,0,0,0,0,0,0,0,0,0,0,0,0,0,0,0,0,0,0,0,0,0,0,0,0,0],"id":7,"left_children":[1,3,5,7,-1,9,11,13,15,17,19,-1,21,23,25,27,-1,29,-1,-1,-1,31,33,35,-1,37,39,-1,-1,-1,-1,-1,41,43,45,-1,-1,-1,-1,-1,-1,-1,-1,-1,-1,-1,-1],"loss_changes":[1.4569591E0,1.8873329E0,1.058265E0,1.1427177E0,0E0,1.5395036E0,2.4229136E0,1.4973885E0,7.2118634E-1,2.1893263E-2,1.5469215E0,0E0,7.261652E-1,7.988823E-1,1.0211158E0,6.200993E-1,0E0,1.029203E0,0E0,0E0,0E0,9.536114E-1,2.9108372E0,1.2624643E0,0E0,1.3056253E0,3.3522952E0,0E0,0E0,0E0,0E0,0E0,8.140807E-1,7.876396E-1,8.480184E-1,0E0,0E0,0E0,0E0,0E0,0E0,0E0,0E0,0E0,0E0,0E0,0E0],"parents":[2147483647,0,0,1,1,2,2,3,3,5,5,6,6,7,7,8,8,9,9,10,10,12,12,13,13,14,14,15,15,17,17,21,21,22,22,23,23,25,25,26,26,32,32,33,33,34,34],"right_children":[2,4,6,8,-1,10,12,14,16,18,20,-1,22,24,26,28,-1,30,-1,-1,-1,32,34,36,-1,38,40,-1,-1,-1,-1,-1,42,44,46,-1,-1,-1,-1,-1,-1,-1,-1,-1,-1,-1,-1],"split_conditions":[1.6054755E2,1.602803E2,1.4778635E2,1.4886101E2,2.974803E-1,1.6592616E2,1.5088426E2,1.1427721E2,1.5511275E2,1.6280804E2,1.6994893E2,2.9288158E-1,1.5618394E2,1.119962E2,1.3403131E2,1.5648076E2,7.327545E-2,9.316568E1,-2.6338542E-1,1.6313262E-1,-1.7571445E-1,1.12021545E2,1.5955397E2,1.2811836E2,-2.3249145E-1,1.3529225E2,1.3641357E2,-2.9574195E-3,-2.1394451E-1,7.967732E-2,-2.2303486E-1,6.580837E-2,1.3391188E2,1.5763457E2,1.6032872E2,-2.0014942E-1,6.2479768E-2,-5.4792337E-2,2.9283354E-1,-1.8861368E-1,6.91137E-2,-3.4117654E-2,-2.0826565E-1,3.175622E-1,7.356634E-3,-2.2775285E-1,-2.9440718E-2],"split_indices":[0,0,1,1,0,0,3,2,3,0,0,0,1,2,1,0,0,5,0,0,0,4,3,1,0,0,1,0,0,0,0,0,2,1,3,0,0,0,0,0,0,0,0,0,0,0,0],"split_type":[0,0,0,0,0,0,0,0,0,0,0,0,0,0,0,0,0,0,0,0,0,0,0,0,0,0,0,0,0,0,0,0,0,0,0,0,0,0,0,0,0,0,0,0,0,0,0],"sum_hessian":[9.623478E1,5.430808E1,4.1926704E1,5.311515E1,1.1929277E0,8.485808E0,3.3440895E1,4.721323E1,5.901919E0,5.453792E0,3.032016E0,1.0685037E0,3.237239E1,7.1418834E0,4.0071346E1,4.823313E0,1.0786053E0,2.478666E0,2.9751263E0,1.9610016E0,1.0710145E0,1.1871635E1,2.0500757E1,5.676504E0,1.4653795E0,3.1347866E0,3.693656E1,1.8795785E0,2.943735E0,1.0477345E0,1.4309314E0,2.017627E0,9.854009E0,2.8179002E0,1.7682858E1,1.4116265E0,4.2648773E0,1.0139394E0,2.1208472E0,4.274842E0,3.266172E1,4.793751E0,5.0602574E0,1.7448174E0,1.0730828E0,1.2777799E0,1.6405077E1],"tree_param":{"num_deleted":"0","num_feature":"6","num_nodes":"47","size_leaf_vector":"1"}},{"base_weights":[-2.5063178E-2,-1.8583089E-1,-5.0067687E-3,4.2161655E-1,-3.998199E-2,-1.5013244E-3,3.0100715E-1,-5.0528E-1,1.707634E-3,-2.9850703E-1,1.648072E-1,-6.3867307E-1,-7.621392E-3,4.0154827E-1,-6.4945616E-2,-2.0127724E-1,2.3245737E-2,-1.813045E-1,-2.6920852E-1,1.6205122E-1,3.3778203E-1,-4.9481344E-1,-6.324306E-3,1.4485265E-1,-2.129261E-1,1.2406202E-1,-2.2472455E-1,-2.545264E-1,2.326696E-3,9.6794605E-2,-2.1634953E-2],"categories":[],"categories_nodes":[],"categories_segments":[],"categories_sizes":[],"default_left":[0,0,0,0,0,0,0,0,0,0,0,0,0,0,0,0,0,0,0,0,0,0,0,0,0,0,0,0,0,0,0],"id":8,"left_children":[1,-1,3,5,7,9,-1,11,13,15,-1,17,-1,19,21,-1,-1,23,-1,25,-1,27,29,-1,-1,-1,-1,-1,-1,-1,-1],"loss_changes":[1.1260211E0,0E0,1.3990649E0,1.7504741E0,1.6793437E0,1.000359E0,0E0,4.3944955E-1,2.169047E0,6.0778344E-1,0E0,4.9144793E-1,0E0,1.8349198E0,1.7553184E0,0E0,0E0,1.4835441E0,0E0,2.5798855E0,0E0,1.4924653E0,1.3742799E0,0E0,0E0,0E0,0E0,0E0,0E0,0E0,0E0],"parents":[2147483647,0,0,2,2,3,3,4,4,5,5,7,7,8,8,9,9,11,11,13,13,14,14,17,17,19,19,21,21,22,22],"right_children":[2,-1,4,6,8,10,-1,12,14,16,-1,18,-1,20,22,-1,-1,24,-1,26,-1,28,30,-1,-1,-1,-1,-1,-1,-1,-1],"split_conditions":[1.2685737E2,-1.8583089E-1,1.3617192E2,1.1883625E2,1.3901888E2,1.5196747E2,3.0100715E-1,1.3660081E2,1.3936157E2,1.0891738E2,1.648072E-1,1.152578E2,-7.621392E-3,1.3878018E2,1.2441682E2,-2.0127724E-1,2.3245737E-2,1.5286964E2,-2.6920852E-1,1.4175726E2,3.3778203E-1,1.333966E2,1.4544667E2,1.4485265E-1,-2.129261E-1,1.2406202E-1,-2.2472455E-1,-2.545264E-1,2.326696E-3,9.6794605E-2,-2.1634953E-2],"split_indices":[1,0,3,2,3,0,0,1,1,2,0,2,0,1,2,0,0,0,0,3,0,4,3,0,0,0,0,0,0,0,0],"split_type":[0,0,0,0,0,0,0,0,0,0,0,0,0,0,0,0,0,0,0,0,0,0,0,0,0,0,0,0,0,0,0],"sum_hessian":[9.371718E1,2.0836403E0,9.163354E1,6.10544E0,8.55281E1,4.1120434E0,1.9933965E0,6.1185794E0,7.940952E1,2.9692323E0,1.1428112E0,4.52878E0,1.5897993E0,1.0628237E1,6.878128E1,1.0976322E0,1.8716003E0,2.25057E0,2.27821E0,8.907097E0,1.7211406E0,7.361181E0,6.14201E1,1.0354881E0,1.215082E0,7.4083786E0,1.498718E0,3.9170053E0,3.4441755E0,9.585717E0,5.1834385E1],"tree_param":{"num_deleted":"0","num_feature":"6","num_nodes":"31","size_leaf_vector":"1"}},{"base_weights":[-2.1478096E-2,-4.266024E-1,3.7250835E-3,-2.3747577E-1,1.1301467E-1,4.1463964E-2,-3.1045994E-1,-3.292901E-2,8.566761E-2,1.4537367E-2,2.24252E-1,1.28049E-2,-2.2757332E-1,4.593463E-2,-4.1176575E-1,-1.924087E-1,3.100888E-1,2.6058826E-1,1.3729907E-2,-6.0880417E-1,5.8047753E-2,1.9504374E-1,3.3982173E-2,-5.971277E-2,2.1063134E-2,-2.0480289E-1,-5.7200268E-2,-1.20998956E-1,1.3416475E-1],"categories":[],"categories_nodes":[],"categories_segments":[],"categories_sizes":[],"default_left":[0,0,0,0,0,0,0,0,0,0,0,0,0,0,0,0,0,0,0,0,0,0,0,0,0,0,0,0,0],"id":9,"left_children":[1,3,5,-1,7,9,11,-1,-1,13,-1,15,-1,17,19,-1,21,-1,23,25,-1,-1,27,-1,-1,-1,-1,-1,-1],"loss_changes":[9.5048213E-1,1.1631508E0,1.0620059E0,0E0,1.4952964E-1,1.5076808E0,1.401288E0,0E0,0E0,1.0624084E0,0E0,1.4753958E0,0E0,1.9357728E0,7.675642E-1,0E0,4.6493584E-1,0E0,8.763489E-1,4.245758E-3,0E0,0E0,8.883859E-1,0E0,0E0,0E0,0E0,0E0,0E0],"parents":[2147483647,0,0,1,1,2,2,4,4,5,5,6,6,9,9,11,11,13,13,14,14,16,16,18,18,19,19,22,22],"right_children":[2,4,6,-1,8,10,12,-1,-1,14,-1,16,-1,18,20,-1,22,-1,24,26,-1,-1,28,-1,-1,-1,-1,-1,-1],"split_conditions":[6.918761E1,1.9281853E2,1.407228E2,-2.3747577E-1,1.6172449E2,1.3944426E2,1.1054997E2,-3.292901E-2,8.566761E-2,1.3616374E2,2.24252E-1,1.2811836E2,-2.2757332E-1,1.1959885E2,1.3868105E2,-1.924087E-1,1.347174E2,2.6058826E-1,1.260878E2,1.5629019E2,5.8047753E-2,1.9504374E-1,1.3322044E2,-5.971277E-2,2.1063134E-2,-2.0480289E-1,-5.7200268E-2,-1.20998956E-1,1.3416475E-1],"split_indices":[5,0,4,0,2,4,2,0,0,4,0,1,0,2,1,0,3,0,2,0,0,0,1,0,0,0,0,0,0],"split_type":[0,0,0,0,0,0,0,0,0,0,0,0,0,0,0,0,0,0,0,0,0,0,0,0,0,0,0,0,0],"sum_hessian":[9.1933784E1,4.45155E0,8.748223E1,2.3769205E0,2.0746295E0,7.887594E1,8.606294E0,1.0643109E0,1.0103185E0,7.6961426E1,1.9145149E0,5.563965E0,3.0423284E0,7.251308E1,4.4483457E0,1.3768431E0,4.187122E0,1.7532401E0,7.0759834E1,3.3514435E0,1.0969023E0,1.2692294E0,2.9178925E0,1.4313643E1,5.6446194E1,2.3105721E0,1.0408714E0,1.4292885E0,1.488604E0],"tree_param":{"num_deleted":"0","num_feature":"6","num_nodes":"29","size_leaf_vector":"1"}},{"base_weights":[-1.8466635E-2,3.049779E-3,-3.8173184E-1,-1.4333349E-2,1.9677886E-1,-2.2135855E-1,9.532158E-2,9.256505E-3,-1.6745187E-1,-2.8771272E-2,7.18728E-2,4.1479066E-2,-2.6402032E-1,1.8994963E-2,1.7587146E-1,7.454217E-3,-6.58323E-1,1.3759265E-2,-1.0097057E-1,-1.7647675E-1,7.757288E-2,-5.982407E-2,-2.3198634E-1],"categories":[],"categories_nodes":[],"categories_segments":[],"categories_sizes":[],"default_left":[0,0,0,0,0,0,0,0,0,0,0,0,0,0,0,0,0,0,0,0,0,0,0],"id":10,"left_children":[1,3,5,7,-1,-1,9,11,-1,-1,-1,13,15,17,-1,19,21,-1,-1,-1,-1,-1,-1],"loss_changes":[7.190968E-1,1.0048091E0,9.442924E-1,1.1137549E0,0E0,0E0,1.0805949E-1,7.488962E-1,0E0,0E0,0E0,9.1764206E-1,9.65612E-1,7.2103834E-1,0E0,1.0951848E0,3.9460182E-2,0E0,0E0,0E0,0E0,0E0,0E0],"parents":[2147483647,0,0,1,1,2,2,3,3,6,6,7,7,11,11,12,12,13,13,15,15,16,16],"right_children":[2,4,6,8,-1,-1,10,12,-1,-1,-1,14,16,18,-1,20,22,-1,-1,-1,-1,-1,-1],"split_conditions":[1.7081561E2,1.6915688E2,1.9281853E2,1.8043803E2,1.9677886E-1,-2.2135855E-1,1.7930711E2,1.407228E2,-1.6745187E-1,-2.8771272E-2,7.18728E-2,1.3944426E2,1.1054997E2,1.3616374E2,1.7587146E-1,1.2811836E2,1.119962E2,1.3759265E-2,-1.0097057E-1,-1.7647675E-1,7.757288E-2,-5.982407E-2,-2.3198634E-1],"split_indices":[3,3,0,0,0,0,1,4,0,0,0,4,2,4,0,1,2,0,0,0,0,0,0],"split_type":[0,0,0,0,0,0,0,0,0,0,0,0,0,0,0,0,0,0,0,0,0,0,0],"sum_hessian":[9.085228E1,8.670811E1,4.1441684E0,8.541203E1,1.2960762E0,2.0597882E0,2.0843801E0,8.28033E1,2.608738E0,1.0403926E0,1.0439874E0,7.482837E1,7.974931E0,7.285621E1,1.9721603E0,5.304154E0,2.6707766E0,6.854723E1,4.3089724E0,1.1747975E0,4.1293564E0,1.0828567E0,1.5879198E0],"tree_param":{"num_deleted":"0","num_feature":"6","num_nodes":"23","size_leaf_vector":"1"}},{"base_weights":[-1.9529438E-2,-1.4490092E-1,-5.67908E-3,4.069613E-1,-3.750945E-2,5.488676E-2,2.626045E-1,-4.2965117E-1,-4.548551E-3,-2.7524993E-1,1.2575981E-1,-5.554906E-1,-5.3566447E-3,3.3766845E-1,-6.039133E-2,-1.5891176E-2,-1.1096423E-1,-4.3190964E-2,-2.2873607E-1,1.3871552E-1,2.7106106E-1,-4.9893704E-1,1.1923447E-2,9.976612E-2,-1.9498162E-1,3.8719382E-2,-2.7475214E-1,2.1339516E-1,-1.8493205E-2],"categories":[],"categories_nodes":[],"categories_segments":[],"categories_sizes":[],"default_left":[0,0,0,0,0,0,0,0,0,0,0,0,0,0,0,0,0,0,0,0,0,0,0,0,0,0,0,0,0],"id":11,"left_children":[1,-1,3,5,7,9,-1,11,13,15,-1,17,-1,19,21,-1,-1,-1,-1,23,-1,25,27,-1,-1,-1,-1,-1,-1],"loss_changes":[5.8257395E-1,0E0,1.1914232E0,1.0233959E0,1.0844214E0,6.89815E-1,0E0,3.2723534E-1,1.5213917E0,4.5807436E-2,0E0,3.118329E-1,0E0,1.1322448E0,2.1742973E0,0E0,0E0,0E0,0E0,1.6601667E0,0E0,2.6583214E0,3.114102E0,0E0,0E0,0E0,0E0,0E0,0E0],"parents":[2147483647,0,0,2,2,3,3,4,4,5,5,7,7,8,8,9,9,11,11,13,13,14,14,19,19,21,21,22,22],"right_children":[2,-1,4,6,8,10,-1,12,14,16,-1,18,-1,20,22,-1,-1,-1,-1,24,-1,26,28,-1,-1,-1,-1,-1,-1],"split_conditions":[1.2685737E2,-1.4490092E-1,1.3617192E2,1.1883625E2,1.3901888E2,1.5053114E2,2.626045E-1,1.3660081E2,1.3936157E2,1.1001912E2,1.2575981E-1,1.348822E2,-5.3566447E-3,1.3878018E2,1.4440672E2,-1.5891176E-2,-1.1096423E-1,-4.3190964E-2,-2.2873607E-1,1.4175726E2,2.7106106E-1,1.5236891E2,1.4544667E2,9.976612E-2,-1.9498162E-1,3.8719382E-2,-2.7475214E-1,2.1339516E-1,-1.8493205E-2],"split_indices":[1,0,3,2,3,0,0,1,1,2,0,1,0,1,3,0,0,0,0,3,0,0,3,0,0,0,0,0,0],"split_type":[0,0,0,0,0,0,0,0,0,0,0,0,0,0,0,0,0,0,0,0,0,0,0,0,0,0,0,0,0],"sum_hessian":[9.018116E1,1.6338772E0,8.854728E1,5.4972386E0,8.305004E1,3.7760563E0,1.7211822E0,5.5062323E0,7.754381E1,2.1091928E0,1.6668634E0,3.9501657E0,1.5560664E0,1.0170423E1,6.737339E1,1.0955662E0,1.0136267E0,1.8892508E0,2.060915E0,8.446032E0,1.7243916E0,8.701924E0,5.8671463E1,7.243922E0,1.2021091E0,3.747422E0,4.954502E0,4.75905E0,5.3912415E1],"tree_param":{"num_deleted":"0","num_feature":"6","num_nodes":"29","size_leaf_vector":"1"}},{"base_weights":[-1.5211689E-2,-2.0581933E-3,-1.3567695E-1,3.6084238E-1,-2.935456E-2,-4.8337515E-2,5.9623075E-1,-4.3441835E-1,-7.4140653E-3,2.0363835E-1,6.331142E-2,-4.8880773E-3,-1.812886E-1,8.685505E-2,-8.028774E-2,-6.0257114E-2,3.751236E-1,-4.373292E-1,1.6110897E-2,7.2591245E-2,-1.04571916E-1,-4.5291677E-2,3.3435038E-1,-2.563263E-1,4.497835E-2,1.984454E-1,-2.0251168E-2],"categories":[],"categories_nodes":[],"categories_segments":[],"categories_sizes":[],"default_left":[0,0,0,0,0,0,0,0,0,0,0,0,0,0,0,0,0,0,0,0,0,0,0,0,0,0,0],"id":12,"left_children":[1,3,-1,5,7,-1,9,11,13,-1,-1,-1,-1,15,17,19,21,23,25,-1,-1,-1,-1,-1,-1,-1,-1],"loss_changes":[5.151209E-1,8.838016E-1,0E0,8.6297244E-1,7.336151E-1,0E0,3.2615662E-4,2.9151118E-1,5.542591E-1,0E0,0E0,0E0,0E0,1.5159748E0,1.5714145E0,2.1910918E0,4.850512E0,2.5035982E0,2.027967E0,0E0,0E0,0E0,0E0,0E0,0E0,0E0,0E0],"parents":[2147483647,0,0,1,1,3,3,4,4,6,6,7,7,8,8,13,13,14,14,15,15,16,16,17,17,18,18],"right_children":[2,4,-1,6,8,-1,10,12,14,-1,-1,-1,-1,16,18,20,22,24,26,-1,-1,-1,-1,-1,-1,-1,-1],"split_conditions":[1.4912389E2,1.3617192E2,-1.3567695E-1,1.2994069E2,1.3804736E2,-4.8337515E-2,1.3334816E2,1.348822E2,1.3105496E2,2.0363835E-1,6.331142E-2,-4.8880773E-3,-1.812886E-1,1.4457683E2,1.338523E2,1.3936157E2,9.634898E1,1.4956506E2,1.3511728E2,7.2591245E-2,-1.04571916E-1,-4.5291677E-2,3.3435038E-1,-2.563263E-1,4.497835E-2,1.984454E-1,-2.0251168E-2],"split_indices":[4,3,0,1,3,0,1,1,2,0,0,0,0,1,2,1,5,3,2,0,0,0,0,0,0,0,0],"split_type":[0,0,0,0,0,0,0,0,0,0,0,0,0,0,0,0,0,0,0,0,0,0,0,0,0,0,0],"sum_hessian":[8.876893E1,8.715071E1,1.6182177E0,5.2418447E0,8.190887E1,1.7272367E0,3.514608E0,3.2426913E0,7.8666176E1,2.2665637E0,1.2480443E0,1.2534472E0,1.9892442E0,3.421453E1,4.4451645E1,2.3177382E1,1.103715E1,8.698277E0,3.575337E1,1.1394163E1,1.1783217E1,6.9136395E0,4.1235104E0,4.819999E0,3.8782778E0,3.308201E0,3.2445168E1],"tree_param":{"num_deleted":"0","num_feature":"6","num_nodes":"27","size_leaf_vector":"1"}},{"base_weights":[-1.0529341E-2,1.5158423E-2,-2.6106766E-1,-3.4025388E-3,1.5388915E-1,-1.7304491E-2,-1.8249442E-1,1.9282613E-2,-3.3603486E-1,-2.1667577E-1,1.1517181E-1,4.6614814E-1,-2.1882663E-2,-4.8147905E-1,3.5772342E-2,-2.2200184E-1,2.2583854E-1,-1.1785944E-2,6.307791E-1,2.1336671E-2,-6.094617E-1,-4.735783E-2,-1.8416205E-1,1.3362615E-1,-2.3294501E-2,2.6466474E-1,2.2424424E-2,2.1142313E-1,-5.706094E-4,-5.7750832E-2,-2.2931696E-1],"categories":[],"categories_nodes":[],"categories_segments":[],"categories_sizes":[],"default_left":[0,0,0,0,0,0,0,0,0,0,0,0,0,0,0,0,0,0,0,0,0,0,0,0,0,0,0,0,0,0,0],"id":13,"left_children":[1,3,5,7,-1,9,-1,11,13,15,-1,17,19,21,-1,-1,23,-1,25,27,29,-1,-1,-1,-1,-1,-1,-1,-1,-1,-1],"loss_changes":[5.72966E-1,7.5142646E-1,6.9008225E-1,6.042098E-1,0E0,5.545132E-1,0E0,1.3917245E0,3.9589024E-1,1.2267315E0,0E0,5.556338E-1,1.7835829E0,7.7583194E-2,0E0,0E0,2.508586E-1,0E0,6.150328E-1,1.0481105E0,1.6362798E-1,0E0,0E0,0E0,0E0,0E0,0E0,0E0,0E0,0E0,0E0],"parents":[2147483647,0,0,1,1,2,2,3,3,5,5,7,7,8,8,9,9,11,11,12,12,13,13,16,16,18,18,19,19,20,20],"right_children":[2,4,6,8,-1,10,-1,12,14,16,-1,18,20,22,-1,-1,24,-1,26,28,30,-1,-1,-1,-1,-1,-1,-1,-1,-1,-1],"split_conditions":[1.407228E2,1.3944426E2,1.1054997E2,1.3616374E2,1.5388915E-1,1.0891738E2,-1.8249442E-1,1.2156243E2,1.3868105E2,1.5228587E2,1.1517181E-1,1.3606781E2,1.3138905E2,1.17179245E2,3.5772342E-2,-2.2200184E-1,1.5430997E2,-1.1785944E-2,1.419564E2,1.361405E2,1.5417888E2,-4.735783E-2,-1.8416205E-1,1.3362615E-1,-2.3294501E-2,2.6466474E-1,2.2424424E-2,2.1142313E-1,-5.706094E-4,-5.7750832E-2,-2.2931696E-1],"split_indices":[4,4,2,4,0,2,0,2,1,0,0,1,4,2,0,0,0,0,3,3,0,0,0,0,0,0,0,0,0,0,0],"split_type":[0,0,0,0,0,0,0,0,0,0,0,0,0,0,0,0,0,0,0,0,0,0,0,0,0,0,0,0,0,0,0],"sum_hessian":[8.741346E1,8.0136536E1,7.276925E0,7.821346E1,1.9230695E0,4.8923726E0,2.3845525E0,7.410184E1,4.111632E0,3.5755432E0,1.3168294E0,5.3796597E0,6.8722176E1,3.072519E0,1.0391129E0,1.3301697E0,2.2453735E0,1.5088122E0,3.8708475E0,6.4911316E1,3.8108597E0,1.5285456E0,1.5439736E0,1.031428E0,1.2139455E0,2.2615473E0,1.6093001E0,1.1702462E0,6.3741066E1,1.639905E0,2.1709547E0],"tree_param":{"num_deleted":"0","num_feature":"6","num_nodes":"31","size_leaf_vector":"1"}},{"base_weights":[-8.452561E-3,-3.1241697E-1,8.785569E-3,-2.0283283E-1,3.2396782E-2,1.812145E-1,-8.28475E-3,1.2135961E-2,-1.9820471E-1,-4.6040654E-2,2.3057136E-1,1.7098831E-2,-6.2579423E-1,8.605145E-2,7.246469E-1,1.9183286E-1,-4.2805998E-3,-2.3973732E-1,2.0592611E-2,7.714404E-2,-1.2519178E-1,2.7453065E-1,5.535093E-2],"categories":[],"categories_nodes":[],"categories_segments":[],"categories_sizes":[],"default_left":[0,0,0,0,0,0,0,0,0,0,0,0,0,0,0,0,0,0,0,0,0,0,0],"id":14,"left_children":[1,3,5,-1,-1,-1,7,9,-1,11,13,15,17,19,21,-1,-1,-1,-1,-1,-1,-1,-1],"loss_changes":[4.595792E-1,7.9261386E-1,8.5326624E-1,0E0,0E0,0E0,1.1023046E0,1.0352188E0,0E0,2.371882E0,1.1603565E0,1.1636597E0,8.205793E-1,1.3460364E0,2.1596313E-1,0E0,0E0,0E0,0E0,0E0,0E0,0E0,0E0],"parents":[2147483647,0,0,1,1,2,2,6,6,7,7,9,9,10,10,11,11,12,12,13,13,14,14],"right_children":[2,4,6,-1,-1,-1,8,10,-1,12,14,16,18,20,22,-1,-1,-1,-1,-1,-1,-1,-1],"split_conditions":[6.918761E1,1.9281853E2,7.146497E1,-2.0283283E-1,3.2396782E-2,1.812145E-1,1.6580417E2,1.4225351E2,-1.9820471E-1,1.3818085E2,1.114926E2,1.18325836E2,1.5777075E2,1.0948252E2,1.121051E2,1.9183286E-1,-4.2805998E-3,-2.3973732E-1,2.0592611E-2,7.714404E-2,-1.2519178E-1,2.7453065E-1,5.535093E-2],"split_indices":[5,0,5,0,0,0,1,2,0,2,4,4,1,4,4,0,0,0,0,0,0,0,0],"split_type":[0,0,0,0,0,0,0,0,0,0,0,0,0,0,0,0,0,0,0,0,0,0,0],"sum_hessian":[8.6185844E1,3.7063963E0,8.247945E1,1.6611289E0,2.0452673E0,1.3407286E0,8.113872E1,7.9627686E1,1.5110302E0,6.350375E1,1.6123936E1,5.8142143E1,5.3616066E0,1.3383387E1,2.74055E0,1.8596861E0,5.628246E1,4.170023E0,1.1915836E0,1.0353337E1,3.030049E0,1.5129132E0,1.2276368E0],"tree_param":{"num_deleted":"0","num_feature":"6","num_nodes":"23","size_leaf_vector":"1"}},{"base_weights":[-7.1119536E-3,1.3651462E-2,-2.1777792E-1,1.0393309E-1,-6.0341347E-2,-4.354127E-2,-1.938701E-1,4.4043828E-2,6.838534E-1,-6.8233526E-1,3.4971116E-3,-2.8201383E-1,1.0515302E-1,-3.4873274E-3,2.2300933E-1,3.2407925E-1,-3.3374365E-2,-5.4464795E-2,-2.449908E-1,-4.4899392E-1,4.735638E-2,2.227612E-3,-1.9110839E-1,8.085365E-2,-3.2012087E-1,-2.1525304E-1,1.8572873E-2,-2.9594436E-2,4.2836347E-1,-9.001757E-2,1.06906496E-1,-1.4577775E-2,1.9615947E-1,-1.6318628E-1,1.3082814E-1,-1.16633706E-1,2.2154778E-2,2.1405268E-1,-1.0843388E-1],"categories":[],"categories_nodes":[],"categories_segments":[],"categories_sizes":[],"default_left":[0,0,0,0,0,0,0,0,0,0,0,0,0,0,0,0,0,0,0,0,0,0,0,0,0,0,0,0,0,0,0,0,0,0,0,0,0,0,0],"id":15,"left_children":[1,3,5,7,9,11,-1,13,15,17,19,21,-1,23,-1,-1,-1,-1,-1,25,27,29,-1,31,33,-1,-1,35,37,-1,-1,-1,-1,-1,-1,-1,-1,-1,-1],"loss_changes":[3.8202178E-1,5.395043E-1,5.566661E-1,1.2313572E0,1.769419E0,7.229267E-1,0E0,1.1324146E0,1.1700683E0,1.3067698E-1,8.419762E-1,4.7483772E-1,0E0,9.024125E-1,0E0,0E0,0E0,0E0,0E0,5.588153E-1,1.1445192E0,4.9251038E-1,0E0,2.0134785E0,1.4399383E0,0E0,0E0,1.2568178E0,1.7333342E0,0E0,0E0,0E0,0E0,0E0,0E0,0E0,0E0,0E0,0E0],"parents":[2147483647,0,0,1,1,2,2,3,3,4,4,5,5,7,7,8,8,9,9,10,10,11,11,13,13,19,19,20,20,21,21,23,23,24,24,27,27,28,28],"right_children":[2,4,6,8,10,12,-1,14,16,18,20,22,-1,24,-1,-1,-1,-1,-1,26,28,30,-1,32,34,-1,-1,36,38,-1,-1,-1,-1,-1,-1,-1,-1,-1,-1],"split_conditions":[1.407228E2,1.459208E2,1.119962E2,1.4527582E2,1.5545961E2,1.3322044E2,-1.938701E-1,1.441872E2,1.2886896E2,1.4640427E2,1.2857835E2,1.3523804E2,1.0515302E-1,1.4544667E2,2.2300933E-1,3.2407925E-1,-3.3374365E-2,-5.4464795E-2,-2.449908E-1,1.5211511E2,1.227868E2,1.5228587E2,-1.9110839E-1,1.4440672E2,1.6592616E2,-2.1525304E-1,1.8572873E-2,1.3596211E2,1.5297508E2,-9.001757E-2,1.06906496E-1,-1.4577775E-2,1.9615947E-1,-1.6318628E-1,1.3082814E-1,-1.16633706E-1,2.2154778E-2,2.1405268E-1,-1.0843388E-1],"split_indices":[4,1,2,1,0,1,0,2,2,1,2,3,0,3,0,0,0,0,0,1,4,0,0,3,0,0,0,2,1,0,0,0,0,0,0,0,0,0,0],"split_type":[0,0,0,0,0,0,0,0,0,0,0,0,0,0,0,0,0,0,0,0,0,0,0,0,0,0,0,0,0,0,0,0,0,0,0,0,0,0,0],"sum_hessian":[8.565666E1,7.8823E1,6.8336625E0,3.532135E1,4.3501648E1,5.641217E0,1.192445E0,3.2990334E1,2.3310144E0,3.1473892E0,4.035426E1,3.6915073E0,1.9497101E0,3.1822453E1,1.167883E0,1.316168E0,1.0148466E0,1.1629069E0,1.9844823E0,2.7496178E0,3.760464E1,2.6019697E0,1.0895375E0,2.5716934E1,6.1055174E0,1.5372754E0,1.2123423E0,3.205327E1,5.551373E0,1.486102E0,1.1158677E0,2.1724463E1,3.9924722E0,4.9276586E0,1.1778587E0,6.5503416E0,2.5502926E1,4.1497817E0,1.4015913E0],"tree_param":{"num_deleted":"0","num_feature":"6","num_nodes":"39","size_leaf_vector":"1"}},{"base_weights":[-7.7653346E-3,8.466296E-3,-2.9608497E-1,-8.158674E-3,1.6874522E-1,-1.9373311E-1,2.7441729E-2,1.1043662E-2,-1.5104893E-1,-8.353661E-3,1.6247405E-1,-2.3110153E-1,2.2000423E-2,1.2910505E-2,-9.727727E-2],"categories":[],"categories_nodes":[],"categories_segments":[],"categories_sizes":[],"default_left":[0,0,0,0,0,0,0,0,0,0,0,0,0,0,0],"id":16,"left_children":[1,3,5,7,-1,-1,-1,9,-1,11,-1,-1,13,-1,-1],"loss_changes":[4.013785E-1,7.567258E-1,6.784693E-1,7.690331E-1,0E0,0E0,0E0,8.097958E-1,0E0,1.7857634E0,0E0,0E0,5.5669445E-1,0E0,0E0],"parents":[2147483647,0,0,1,1,2,2,3,3,7,7,9,9,12,12],"right_children":[2,4,6,8,-1,-1,-1,10,-1,12,-1,-1,14,-1,-1],"split_conditions":[1.6865945E2,1.6915688E2,1.771023E2,1.6557039E2,1.6874522E-1,-1.9373311E-1,2.7441729E-2,1.6503748E2,-1.5104893E-1,7.750935E1,1.6247405E-1,-2.3110153E-1,1.5291031E2,1.2910505E-2,-9.727727E-2],"split_indices":[1,3,3,3,0,0,0,3,0,5,0,0,2,0,0],"split_type":[0,0,0,0,0,0,0,0,0,0,0,0,0,0,0],"sum_hessian":[8.423087E1,8.066054E1,3.5703382E0,7.926716E1,1.3933764E0,1.5266088E0,2.0437295E0,7.7250175E1,2.0169868E0,7.547494E1,1.7752385E0,1.9574809E0,7.3517456E1,7.013272E1,3.3847315E0],"tree_param":{"num_deleted":"0","num_feature":"6","num_nodes":"15","size_leaf_vector":"1"}},{"base_weights":[-1.0153479E-2,-1.21787556E-1,1.5079449E-3,3.5593277E-1,-2.3996089E-2,-2.1441573E-2,5.643027E-1,-2.6310453E-1,1.2638142E-2,6.3718915E-2,2.1457231E-1,-3.405489E-2,-3.3903882E-1,2.2153611E-1,-1.4926583E-2,-3.225289E-1,5.4208076E-1,1.4223634E-1,-3.2496214E-2,4.5911618E-2,-1.9506618E-1,8.36085E-3,2.2975387E-1,-2.2740954E-1,3.6076417E-3],"categories":[],"categories_nodes":[],"categories_segments":[],"categories_sizes":[],"default_left":[0,0,0,0,0,0,0,0,0,0,0,0,0,0,0,0,0,0,0,0,0,0,0,0,0],"id":17,"left_children":[1,-1,3,5,7,-1,9,11,13,-1,-1,15,-1,-1,17,19,21,-1,23,-1,-1,-1,-1,-1,-1],"loss_changes":[3.9241728E-1,0E0,7.6289576E-1,5.4486823E-1,6.9347197E-1,0E0,5.6349516E-2,2.049373E0,1.3969923E0,0E0,0E0,1.7283756E0,0E0,0E0,5.9728473E-1,1.1678879E0,3.8042772E-1,0E0,2.1509829E0,0E0,0E0,0E0,0E0,0E0,0E0],"parents":[2147483647,0,0,2,2,3,3,4,4,6,6,7,7,8,8,11,11,14,14,15,15,16,16,18,18],"right_children":[2,-1,4,6,8,-1,10,12,14,-1,-1,16,-1,-1,18,20,22,-1,24,-1,-1,-1,-1,-1,-1],"split_conditions":[1.2685737E2,-1.21787556E-1,1.3617192E2,1.0891738E2,1.3745033E2,-2.1441573E-2,1.1883625E2,1.3706001E2,1.3979602E2,6.3718915E-2,2.1457231E-1,1.3641357E2,-3.3903882E-1,2.2153611E-1,1.4439027E2,1.152578E2,1.386955E2,1.4223634E-1,1.5053114E2,4.5911618E-2,-1.9506618E-1,8.36085E-3,2.2975387E-1,-2.2740954E-1,3.6076417E-3],"split_indices":[1,0,3,2,1,0,2,1,3,0,0,1,0,0,0,2,3,0,0,0,0,0,0,0,0],"split_type":[0,0,0,0,0,0,0,0,0,0,0,0,0,0,0,0,0,0,0,0,0,0,0,0,0],"sum_hessian":[8.388622E1,1.4330891E0,8.245314E1,4.665239E0,7.7787895E1,1.7443185E0,2.9209204E0,9.513325E0,6.8274574E1,1.599328E0,1.3215922E0,8.347397E0,1.165928E0,1.5544354E0,6.672014E1,5.855636E0,2.4917605E0,1.412697E0,6.530744E1,2.606252E0,3.2493842E0,1.0965183E0,1.3952423E0,2.849252E0,6.245819E1],"tree_param":{"num_deleted":"0","num_feature":"6","num_nodes":"25","size_leaf_vector":"1"}},{"base_weights":[-7.5086546E-3,1.3812287E-2,-2.2446771E-1,2.9088062E-1,-7.611101E-3,-4.2573202E-1,7.136605E-2,-5.728171E-2,1.8224488E-1,-2.9944643E-1,1.9042097E-2,4.576328E-2,-2.0027952E-1,-8.621174E-2,1.2478048E-1,-1.460506E-1,1.0871294E-1,-5.649666E-1,4.4520173E-2,2.4580477E-1,-9.03353E-3,1.1159249E-2,-2.375108E-1,2.7165389E-2,-2.2319007E-1,-2.4967347E-3,2.3432794E-1,-1.04534484E-1,6.813969E-2],"categories":[],"categories_nodes":[],"categories_segments":[],"categories_sizes":[],"default_left":[0,0,0,0,0,0,0,0,0,0,0,0,0,0,0,0,0,0,0,0,0,0,0,0,0,0,0,0,0],"id":18,"left_children":[1,3,5,7,9,11,13,15,-1,17,19,-1,-1,-1,-1,-1,-1,21,-1,-1,23,-1,-1,25,27,-1,-1,-1,-1],"loss_changes":[3.920058E-1,4.6219167E-1,4.817466E-1,6.506833E-1,5.7278657E-1,7.529171E-1,6.0478663E-1,8.208431E-1,0E0,8.1646097E-1,1.5295624E0,0E0,0E0,0E0,0E0,0E0,0E0,5.859363E-1,0E0,0E0,5.211032E-1,0E0,0E0,1.5508922E0,6.271186E-1,0E0,0E0,0E0,0E0],"parents":[2147483647,0,0,1,1,2,2,3,3,4,4,5,5,6,6,7,7,9,9,10,10,17,17,20,20,23,23,24,24],"right_children":[2,4,6,8,10,12,14,16,-1,18,20,-1,-1,-1,-1,-1,-1,22,-1,-1,24,-1,-1,26,28,-1,-1,-1,-1],"split_conditions":[1.407228E2,1.3848755E2,1.0226349E2,1.4549718E2,1.4039961E2,1.0650655E2,1.5053114E2,1.2314729E2,1.8224488E-1,1.3745033E2,1.4083746E2,4.576328E-2,-2.0027952E-1,-8.621174E-2,1.2478048E-1,-1.460506E-1,1.0871294E-1,1.359168E2,4.4520173E-2,2.4580477E-1,1.4998369E2,1.1159249E-2,-2.375108E-1,1.4867177E2,1.9281853E2,-2.4967347E-3,2.3432794E-1,-1.04534484E-1,6.813969E-2],"split_indices":[4,3,5,0,3,2,0,2,0,1,3,0,0,0,0,0,0,1,0,0,2,0,0,2,0,0,0,0,0],"split_type":[0,0,0,0,0,0,0,0,0,0,0,0,0,0,0,0,0,0,0,0,0,0,0,0,0,0,0,0,0],"sum_hessian":[8.307363E1,7.649288E1,6.5807505E0,4.587328E0,7.190555E1,3.655033E0,2.9257174E0,2.574865E0,2.0124629E0,5.161001E0,6.674455E1,1.1868079E0,2.4682255E0,1.5147111E0,1.4110063E0,1.1933255E0,1.3815396E0,3.0758622E0,2.085139E0,1.3069098E0,6.543764E1,1.070029E0,2.0058331E0,5.6722908E1,8.714732E0,5.511746E1,1.6054509E0,6.9952197E0,1.7195119E0],"tree_param":{"num_deleted":"0","num_feature":"6","num_nodes":"29","size_leaf_vector":"1"}},{"base_weights":[-2.6234947E-3,-3.002378E-1,1.41839115E-2,1.4430292E-2,-1.8731633E-1,1.341955E-1,1.7551302E-4,1.6633963E-2,-1.7390272E-1,1.7914951E-1,6.9755135E-4,2.4276637E-2,-2.2631517E-1,-4.0777386E-3,1.0704944E-1],"categories":[],"categories_nodes":[],"categories_segments":[],"categories_sizes":[],"default_left":[0,0,0,0,0,0,0,0,0,0,0,0,0,0,0],"id":19,"left_children":[1,3,5,-1,-1,-1,7,9,-1,-1,11,13,-1,-1,-1],"loss_changes":[4.2041293E-1,5.372801E-1,4.8352224E-1,0E0,0E0,0E0,7.560033E-1,7.121417E-1,0E0,0E0,1.370778E0,9.447325E-1,0E0,0E0,0E0],"parents":[2147483647,0,0,1,1,2,2,6,6,7,7,10,10,11,11],"right_children":[2,4,6,-1,-1,-1,8,10,-1,-1,12,14,-1,-1,-1],"split_conditions":[6.918761E1,1.0055049E2,7.146497E1,1.4430292E-2,-1.8731633E-1,1.341955E-1,1.8043803E2,7.5575584E1,-1.7390272E-1,1.7914951E-1,1.6549678E2,1.5823807E2,-2.2631517E-1,-4.0777386E-3,1.0704944E-1],"split_indices":[5,4,5,0,0,0,0,5,0,0,3,1,0,0,0],"split_type":[0,0,0,0,0,0,0,0,0,0,0,0,0,0,0],"sum_hessian":[8.2195526E1,3.4923263E0,7.87032E1,2.0938437E0,1.3984824E0,1.4966043E0,7.72066E1,7.602016E1,1.1864365E0,1.0566545E0,7.49635E1,7.363203E1,1.3314738E0,6.696557E1,6.6664596E0],"tree_param":{"num_deleted":"0","num_feature":"6","num_nodes":"15","size_leaf_vector":"1"}},{"base_weights":[-4.736148E-3,3.2865394E-2,-1.0592453E-1,1.37327425E-2,1.6832264E-1,-5.554375E-1,-1.592652E-2,3.3766318E-2,-1.17676176E-1,-3.160992E-2,-2.0415793E-1,2.0788181E-1,-9.065116E-2,8.876398E-3,2.127799E-1,-1.9420685E-1,-1.4207564E-2,4.38159E-2,-4.3709183E-1,2.6743105E-1,-1.5691489E-1,-3.2458776E-3,8.5429154E-2,-2.1865435E-1,-3.1141382E-2,-2.2806264E-2,1.8669958E-1,-2.3973061E-1,7.982454E-3],"categories":[],"categories_nodes":[],"categories_segments":[],"categories_sizes":[],"default_left":[0,0,0,0,0,0,0,0,0,0,0,0,0,0,0,0,0,0,0,0,0,0,0,0,0,0,0,0,0],"id":20,"left_children":[1,3,5,7,-1,9,11,13,-1,-1,-1,-1,15,17,-1,-1,19,21,23,25,27,-1,-1,-1,-1,-1,-1,-1,-1],"loss_changes":[3.1949782E-1,6.11975E-1,9.1105855E-1,5.028684E-1,0E0,1.4018369E-1,1.1208959E0,9.737296E-1,0E0,0E0,0E0,0E0,7.974454E-1,9.109117E-1,0E0,0E0,7.5290066E-1,7.137088E-1,3.3751756E-1,8.174729E-1,1.479158E0,0E0,0E0,0E0,0E0,0E0,0E0,0E0,0E0],"parents":[2147483647,0,0,1,1,2,2,3,3,5,5,6,6,7,7,12,12,13,13,16,16,17,17,18,18,19,19,20,20],"right_children":[2,4,6,8,-1,10,12,14,-1,-1,-1,-1,16,18,-1,-1,20,22,24,26,28,-1,-1,-1,-1,-1,-1,-1,-1],"split_conditions":[1.6702386E2,1.6666911E2,1.5558931E2,1.5763457E2,1.6832264E-1,1.4315146E2,1.5649524E2,1.560373E2,-1.17676176E-1,-3.160992E-2,-2.0415793E-1,2.0788181E-1,1.581336E2,1.5211511E2,2.127799E-1,-1.9420685E-1,1.5911247E2,1.4956506E2,1.114926E2,1.6004826E2,1.6412749E2,-3.2458776E-3,8.5429154E-2,-2.1865435E-1,-3.1141382E-2,-2.2806264E-2,1.8669958E-1,-2.3973061E-1,7.982454E-3],"split_indices":[0,0,3,1,0,1,3,1,0,0,0,0,3,1,0,0,1,3,4,3,3,0,0,0,0,0,0,0,0],"split_type":[0,0,0,0,0,0,0,0,0,0,0,0,0,0,0,0,0,0,0,0,0,0,0,0,0,0,0,0,0],"sum_hessian":[8.205649E1,6.031768E1,2.1738808E1,5.919938E1,1.1183017E0,2.7636323E0,1.8975176E1,5.728925E1,1.9101319E0,1.0017298E0,1.7619023E0,1.0205566E0,1.7954618E1,5.6230484E1,1.0587649E0,1.2660583E0,1.668856E1,5.298139E1,3.2490907E0,5.3184342E0,1.1370126E1,4.3966896E1,9.014498E0,1.0996358E0,2.149455E0,3.1021523E0,2.2162817E0,1.7816194E0,9.588507E0],"tree_param":{"num_deleted":"0","num_feature":"6","num_nodes":"29","size_leaf_vector":"1"}},{"base_weights":[-7.206512E-3,-2.72671E-1,7.368151E-3,-1.7854245E-1,5.264628E-2,-9.951507E-3,3.4840533E-1,1.14015244E-1,-8.898315E-2,1.7891036E-2,-2.9645565E-1,2.531674E-1,-3.6161248E-2,-1.6799737E-2,6.263543E-1,-5.735546E-1,1.8179084E-1,6.3109198E-3,-2.1660365E-1,4.730982E-2,2.7133137E-1,-2.4159017E-1,-2.2998428E-2,1.974108E-1,-1.1344682E-1,9.370235E-3,-1.0864838E-1],"categories":[],"categories_nodes":[],"categories_segments":[],"categories_sizes":[],"default_left":[0,0,0,0,0,0,0,0,0,0,0,0,0,0,0,0,0,0,0,0,0,0,0,0,0,0,0],"id":21,"left_children":[1,3,5,-1,7,9,11,-1,-1,13,15,-1,-1,17,19,21,23,25,-1,-1,-1,-1,-1,-1,-1,-1,-1],"loss_changes":[3.2134265E-1,4.847183E-1,4.713528E-1,0E0,4.637951E-1,6.144055E-1,9.977295E-1,0E0,0E0,1.4994242E0,1.0080748E0,0E0,0E0,1.1080289E0,3.5661924E-1,4.6322417E-1,1.1185317E0,6.2246704E-1,0E0,0E0,0E0,0E0,0E0,0E0,0E0,0E0,0E0],"parents":[2147483647,0,0,1,1,2,2,4,4,5,5,6,6,9,9,10,10,13,13,14,14,15,15,16,16,17,17],"right_children":[2,4,6,-1,8,10,12,-1,-1,14,16,-1,-1,18,20,22,24,26,-1,-1,-1,-1,-1,-1,-1,-1,-1],"split_conditions":[6.918761E1,1.9281853E2,1.6432693E2,-1.7854245E-1,1.8166936E2,1.5958383E2,1.490661E2,1.14015244E-1,-8.898315E-2,1.5823807E2,1.6503748E2,2.531674E-1,-3.6161248E-2,1.5763457E2,1.472192E2,1.6164972E2,1.6549678E2,1.7353622E2,-2.1660365E-1,4.730982E-2,2.7133137E-1,-2.4159017E-1,-2.2998428E-2,1.974108E-1,-1.1344682E-1,9.370235E-3,-1.0864838E-1],"split_indices":[5,0,1,0,3,1,2,0,0,1,3,0,0,1,2,1,3,0,0,0,0,0,0,0,0,0,0],"split_type":[0,0,0,0,0,0,0,0,0,0,0,0,0,0,0,0,0,0,0,0,0,0,0,0,0,0,0],"sum_hessian":[8.153527E1,3.321867E0,7.821341E1,1.251701E0,2.0701659E0,7.535719E1,2.856214E0,1.0230013E0,1.0471646E0,6.953711E1,5.82008E0,1.0000247E0,1.8561893E0,6.670632E1,2.830788E0,3.5588017E0,2.261278E0,6.554925E1,1.1570764E0,1.6377602E0,1.1930276E0,2.0036488E0,1.5551529E0,1.1273069E0,1.133971E0,6.225369E1,3.2955616E0],"tree_param":{"num_deleted":"0","num_feature":"6","num_nodes":"27","size_leaf_vector":"1"}},{"base_weights":[-7.873125E-3,2.6684175E-3,-1.1088685E-1,2.9322827E-1,-1.7919732E-2,-3.341591E-2,1.3827269E-1,-3.6094514E-1,-3.3363662E-4,7.4560903E-3,-1.5408297E-1,-6.4373426E-2,8.623176E-2,-3.485721E-1,1.463825E-2,-3.513939E-2,3.4058428E-1,-1.612687E-1,5.520646E-2,-1.0074879E-2,1.9327942E-1,6.281209E-2,-7.882362E-2,-7.900645E-3,2.433413E-1],"categories":[],"categories_nodes":[],"categories_segments":[],"categories_sizes":[],"default_left":[0,0,0,0,0,0,0,0,0,0,0,0,0,0,0,0,0,0,0,0,0,0,0,0,0],"id":22,"left_children":[1,3,-1,5,7,-1,-1,9,11,-1,-1,13,15,17,19,21,23,-1,-1,-1,-1,-1,-1,-1,-1],"loss_changes":[3.1357202E-1,4.876633E-1,0E0,4.1727015E-1,4.5984766E-1,0E0,0E0,2.3171934E-1,4.1318017E-1,0E0,0E0,9.6700865E-1,9.9039704E-1,1.0409474E0,1.0684371E0,1.2995329E0,1.8051934E0,0E0,0E0,0E0,0E0,0E0,0E0,0E0,0E0],"parents":[2147483647,0,0,1,1,3,3,4,4,7,7,8,8,11,11,12,12,13,13,14,14,15,15,16,16],"right_children":[2,4,-1,6,8,-1,-1,10,12,-1,-1,14,16,18,20,22,24,-1,-1,-1,-1,-1,-1,-1,-1],"split_conditions":[1.4912389E2,1.3617192E2,-1.1088685E-1,1.2994069E2,1.3804736E2,-3.341591E-2,1.3827269E-1,1.348822E2,1.240976E2,7.4560903E-3,-1.5408297E-1,1.5629019E2,1.4457683E2,1.1008222E2,9.811709E1,1.3936157E2,9.634898E1,-1.612687E-1,5.520646E-2,-1.0074879E-2,1.9327942E-1,6.281209E-2,-7.882362E-2,-7.900645E-3,2.433413E-1],"split_indices":[4,3,0,1,3,0,0,1,4,0,0,0,1,5,5,1,5,0,0,0,0,0,0,0,0],"split_type":[0,0,0,0,0,0,0,0,0,0,0,0,0,0,0,0,0,0,0,0,0,0,0,0,0],"sum_hessian":[8.097035E1,7.9642166E1,1.3281838E0,4.393552E0,7.524862E1,1.3856624E0,3.0078895E0,2.717524E0,7.253109E1,1.0078329E0,1.709691E0,4.1837036E1,3.0694056E1,8.358941E0,3.3478096E1,2.1362305E1,9.331751E0,6.1627626E0,2.1961784E0,3.1975826E1,1.5022693E0,1.0337268E1,1.1025037E1,5.7736835E0,3.5580676E0],"tree_param":{"num_deleted":"0","num_feature":"6","num_nodes":"25","size_leaf_vector":"1"}},{"base_weights":[-4.1239834E-3,2.1916535E-2,-1.4529395E-1,-1.08935E-2,4.1417137E-1,-3.509032E-1,1.4205706E-1,2.3474008E-2,-4.721134E-1,-1.1623105E-2,6.6520625E-1,-2.1304284E-1,-4.041347E-2,-8.7899506E-2,3.7839958E-1,2.138658E-1,-3.5733838E-2,5.0944006E-3,-2.113212E-1,2.7171025E-1,5.1490314E-2,1.7150691E-1,-3.6364788E-1,3.3095922E-2,2.2273828E-1,-5.383389E-3,6.806166E-1,-3.7458888E-1,4.235996E-3,-2.0674102E-1,3.892933E-2,1.2682132E-1,-1.07090466E-1,7.146959E-2,-1.7199652E-1,2.5532177E-1,2.5724245E-2,8.667165E-2,-1.8812409E-1,-3.7607647E-2,2.8998833E-2],"categories":[],"categories_nodes":[],"categories_segments":[],"categories_sizes":[],"default_left":[0,0,0,0,0,0,0,0,0,0,0,0,0,0,0,0,0,0,0,0,0,0,0,0,0,0,0,0,0,0,0,0,0,0,0,0,0,0,0,0,0],"id":23,"left_children":[1,3,5,7,9,11,13,15,17,-1,19,-1,21,-1,23,25,27,-1,-1,-1,-1,-1,29,31,-1,33,35,37,39,-1,-1,-1,-1,-1,-1,-1,-1,-1,-1,-1,-1],"loss_changes":[3.0031392E-1,8.9392364E-1,8.012881E-1,1.0374014E0,6.3518566E-1,8.303778E-1,7.2951365E-1,6.976497E-1,5.2747047E-1,0E0,2.6043057E-1,0E0,1.2350727E0,0E0,5.203987E-1,1.5041975E0,6.4556974E-1,0E0,0E0,0E0,0E0,0E0,7.332263E-1,6.481261E-1,0E0,1.6542069E0,4.0301156E-1,1.0234785E0,5.3339696E-1,0E0,0E0,0E0,0E0,0E0,0E0,0E0,0E0,0E0,0E0,0E0,0E0],"parents":[2147483647,0,0,1,1,2,2,3,3,4,4,5,5,6,6,7,7,8,8,10,10,12,12,14,14,15,15,16,16,22,22,23,23,25,25,26,26,27,27,28,28],"right_children":[2,4,6,8,10,12,14,16,18,-1,20,-1,22,-1,24,26,28,-1,-1,-1,-1,-1,30,32,-1,34,36,38,40,-1,-1,-1,-1,-1,-1,-1,-1,-1,-1,-1,-1],"split_conditions":[1.3616374E2,1.3445631E2,1.0202907E2,1.3138905E2,1.5460512E2,1.5688292E2,1.0891738E2,1.455115E2,1.3834425E2,-1.1623105E-2,1.419564E2,-2.1304284E-1,1.5840971E2,-8.7899506E-2,1.4982828E2,1.4440672E2,1.5545961E2,5.0944006E-3,-2.113212E-1,2.7171025E-1,5.1490314E-2,1.7150691E-1,1.657205E2,1.3270853E2,2.2273828E-1,1.4365425E2,1.5648076E2,1.3017879E2,1.3596211E2,-2.0674102E-1,3.892933E-2,1.2682132E-1,-1.07090466E-1,7.146959E-2,-1.7199652E-1,2.5532177E-1,2.5724245E-2,8.667165E-2,-1.8812409E-1,-3.7607647E-2,2.8998833E-2],"split_indices":[4,4,5,4,0,0,2,3,1,0,3,0,0,0,0,3,0,0,0,0,0,0,0,1,0,3,0,2,2,0,0,0,0,0,0,0,0,0,0,0,0],"split_type":[0,0,0,0,0,0,0,0,0,0,0,0,0,0,0,0,0,0,0,0,0,0,0,0,0,0,0,0,0,0,0,0,0,0,0,0,0,0,0,0,0],"sum_hessian":[7.982653E1,6.810794E1,1.1718588E1,6.374799E1,4.359953E0,6.7019515E0,5.0166364E0,6.0210545E1,3.537446E0,1.8563699E0,2.5035827E0,2.510319E0,4.1916327E0,1.6815492E0,3.335087E0,1.3662994E1,4.654755E1,1.437546E0,2.0999E0,1.1219273E0,1.3816556E0,1.1829149E0,3.0087178E0,2.2715154E0,1.0635717E0,9.968778E0,3.6942177E0,4.0279264E0,4.2519623E1,1.5738336E0,1.4348843E0,1.0944678E0,1.1770475E0,7.382576E0,2.586201E0,2.5366642E0,1.1575534E0,1.0705435E0,2.957383E0,1.7552435E1,2.4967188E1],"tree_param":{"num_deleted":"0","num_feature":"6","num_nodes":"41","size_leaf_vector":"1"}},{"base_weights":[-2.5117954E-3,1.5955055E-2,-1.9917163E-1,1.3330823E-3,1.5624027E-1,-5.244358E-1,6.743859E-2,2.3647174E-2,-2.0995687E-1,-3.7470054E-2,-1.9697648E-1,1.3543764E-1,-7.9514146E-2,-2.502468E-2,2.1921803E-1,4.0778954E-2,-6.5556896E-1,5.4546986E-2,7.333923E-1,1.3784528E-1,8.228966E-4,-8.933417E-2,-2.6334438E-1,1.4945836E-1,-2.8436935E-2,2.6405263E-1,6.4777404E-2],"categories":[],"categories_nodes":[],"categories_segments":[],"categories_sizes":[],"default_left":[0,0,0,0,0,0,0,0,0,0,0,0,0,0,0,0,0,0,0,0,0,0,0,0,0,0,0],"id":24,"left_children":[1,3,5,7,-1,9,11,13,-1,-1,-1,-1,-1,15,17,19,21,23,25,-1,-1,-1,-1,-1,-1,-1,-1],"loss_changes":[2.9083067E-1,5.406383E-1,6.3141817E-1,1.147337E0,0E0,8.748186E-2,7.150763E-1,6.8141305E-1,0E0,0E0,0E0,0E0,0E0,2.4231803E0,1.1667947E0,8.4663606E-1,1.7725635E-1,8.340401E-1,6.645632E-2,0E0,0E0,0E0,0E0,0E0,0E0,0E0,0E0],"parents":[2147483647,0,0,1,1,2,2,3,3,5,5,6,6,7,7,13,13,14,14,15,15,16,16,17,17,18,18],"right_children":[2,4,6,8,-1,10,12,14,-1,-1,-1,-1,-1,16,18,20,22,24,26,-1,-1,-1,-1,-1,-1,-1,-1],"split_conditions":[1.8043803E2,1.7953561E2,1.6678088E2,1.6549678E2,1.5624027E-1,1.653882E2,1.7228427E2,1.4225351E2,-2.0995687E-1,-3.7470054E-2,-1.9697648E-1,1.3543764E-1,-7.9514146E-2,1.3818085E2,1.114926E2,1.1903788E2,1.4091533E2,1.4886101E2,1.121051E2,1.3784528E-1,8.228966E-4,-8.933417E-2,-2.6334438E-1,1.4945836E-1,-2.8436935E-2,2.6405263E-1,6.4777404E-2],"split_indices":[0,0,1,3,0,3,1,2,0,0,0,0,0,2,4,4,2,1,4,0,0,0,0,0,0,0,0],"split_type":[0,0,0,0,0,0,0,0,0,0,0,0,0,0,0,0,0,0,0,0,0,0,0,0,0,0,0],"sum_hessian":[7.820638E1,7.2333E1,5.8733797E0,7.127139E1,1.0616102E0,2.2100594E0,3.6633203E0,7.0009735E1,1.2616584E0,1.0327814E0,1.1772782E0,1.5338724E0,2.129448E0,5.67567E1,1.3253036E1,5.224023E1,4.5164657E0,1.0875955E1,2.3770804E0,3.4276724E0,4.8812557E1,2.6270714E0,1.8893944E0,2.1506844E0,8.72527E0,1.3057636E0,1.0713168E0],"tree_param":{"num_deleted":"0","num_feature":"6","num_nodes":"27","size_leaf_vector":"1"}},{"base_weights":[-2.942511E-3,1.0265715E-2,-2.3776418E-1,-9.220946E-3,4.008575E-1,-1.7261177E-1,2.6051048E-2,1.2468186E-2,-3.822631E-1,1.7850813E-1,1.7709937E-2,2.4334195E-1,-2.172944E-2,-1.9445477E-1,-1.2645658E-2,-1.06807984E-1,3.6820656E-1,1.9183042E-2,-5.621603E-1,4.45555E-2,2.6793256E-1,-2.2388422E-3,1.263374E-1,-3.1322703E-2,-2.0117988E-1],"categories":[],"categories_nodes":[],"categories_segments":[],"categories_sizes":[],"default_left":[0,0,0,0,0,0,0,0,0,0,0,0,0,0,0,0,0,0,0,0,0,0,0,0,0],"id":25,"left_children":[1,3,5,7,9,-1,-1,11,13,-1,-1,15,17,-1,-1,-1,19,21,23,-1,-1,-1,-1,-1,-1],"loss_changes":[2.461157E-1,5.771312E-1,5.1299125E-1,5.9327894E-1,2.0398366E-1,0E0,0E0,5.556623E-1,3.3700025E-1,0E0,0E0,8.102871E-1,1.3735237E0,0E0,0E0,0E0,7.901331E-1,6.2714404E-1,1.4692748E-1,0E0,0E0,0E0,0E0,0E0,0E0],"parents":[2147483647,0,0,1,1,2,2,3,3,4,4,7,7,8,8,11,11,12,12,16,16,17,17,18,18],"right_children":[2,4,6,8,10,-1,-1,12,14,-1,-1,16,18,-1,-1,-1,20,22,24,-1,-1,-1,-1,-1,-1],"split_conditions":[1.7081561E2,1.6432693E2,1.771023E2,1.7787341E2,1.4885016E2,-1.7261177E-1,2.6051048E-2,8.432919E1,1.6018709E2,1.7850813E-1,1.7709937E-2,1.0651393E2,1.6702386E2,-1.9445477E-1,-1.2645658E-2,-1.06807984E-1,8.299704E1,1.6607585E2,1.2942827E2,4.45555E-2,2.6793256E-1,-2.2388422E-3,1.263374E-1,-3.1322703E-2,-2.0117988E-1],"split_indices":[3,1,3,0,2,0,0,5,1,0,0,4,0,0,0,0,5,0,2,0,0,0,0,0,0],"split_type":[0,0,0,0,0,0,0,0,0,0,0,0,0,0,0,0,0,0,0,0,0,0,0,0,0],"sum_hessian":[7.756482E1,7.433965E1,3.2251666E0,7.1737076E1,2.602577E0,1.2022191E0,2.0229475E0,6.870883E1,3.0282397E0,1.187367E0,1.41521E0,8.075314E0,6.0633522E1,1.1911378E0,1.8371019E0,1.0730784E0,7.0022354E0,5.7263016E1,3.3705037E0,5.8406725E0,1.161563E0,5.4623314E1,2.6397016E0,1.0214636E0,2.34904E0],"tree_param":{"num_deleted":"0","num_feature":"6","num_nodes":"25","size_leaf_vector":"1"}},{"base_weights":[-3.9241062E-3,1.3688838E-2,-1.8969978E-1,-2.4843041E-3,1.2938395E-1,2.612626E-2,-1.5265256E-1,-2.9485497E-1,2.2681864E-2,1.876051E-1,-8.25533E-2,5.823368E-2,-1.78911E-1,2.4674147E-1,-3.4193671E-3,1.1718865E-1,-1.0523334E-2,-1.5667953E-1,1.7950166E-2,1.7526035E-1,-1.0779874E-3],"categories":[],"categories_nodes":[],"categories_segments":[],"categories_sizes":[],"default_left":[0,0,0,0,0,0,0,0,0,0,0,0,0,0,0,0,0,0,0,0,0],"id":26,"left_children":[1,3,5,7,-1,9,-1,11,13,15,-1,-1,-1,-1,17,-1,-1,-1,19,-1,-1],"loss_changes":[2.586098E-1,4.9003923E-1,4.8462647E-1,5.26845E-1,0E0,2.9651955E-1,0E0,9.523227E-1,1.3810111E0,1.887413E-1,0E0,0E0,0E0,0E0,7.2927785E-1,0E0,0E0,0E0,7.746334E-1,0E0,0E0],"parents":[2147483647,0,0,1,1,2,2,3,3,5,5,7,7,8,8,9,9,14,14,18,18],"right_children":[2,4,6,8,-1,10,-1,12,14,16,-1,-1,-1,-1,18,-1,-1,-1,20,-1,-1],"split_conditions":[1.407228E2,1.3944426E2,1.1054997E2,1.3641357E2,1.2938395E-1,1.4912389E2,-1.5265256E-1,1.3403131E2,1.3680896E2,1.3523804E2,-8.25533E-2,5.823368E-2,-1.78911E-1,2.4674147E-1,1.3745033E2,1.1718865E-1,-1.0523334E-2,-1.5667953E-1,1.3834425E2,1.7526035E-1,-1.0779874E-3],"split_indices":[4,4,2,1,0,4,0,1,1,3,0,0,0,0,1,0,0,0,1,0,0],"split_type":[0,0,0,0,0,0,0,0,0,0,0,0,0,0,0,0,0,0,0,0,0],"sum_hessian":[7.724224E1,7.139935E1,5.8428855E0,6.9694176E1,1.7051784E0,4.033374E0,1.8095114E0,4.6742496E0,6.501993E1,2.8716934E0,1.1616806E0,1.9187771E0,2.755473E0,1.0906159E0,6.392931E1,1.1076431E0,1.7640504E0,1.6016653E0,6.2327644E1,1.3271567E0,6.100049E1],"tree_param":{"num_deleted":"0","num_feature":"6","num_nodes":"21","size_leaf_vector":"1"}},{"base_weights":[-1.225306E-3,8.02325E-3,-1.0321147E-1,-6.8295957E-3,1.4355318E-1,-3.081665E-1,8.031734E-3,-1.7381063E-1,4.8609592E-2,1.7026472E-1,-8.734008E-3,-3.0055022E-1,1.4034798E-2,7.7336165E-3,-1.802048E-1,2.2788498E-1,-4.701959E-3],"categories":[],"categories_nodes":[],"categories_segments":[],"categories_sizes":[],"default_left":[0,0,0,0,0,0,0,0,0,0,0,0,0,0,0,0,0],"id":27,"left_children":[1,3,-1,5,-1,7,9,-1,-1,-1,11,13,15,-1,-1,-1,-1],"loss_changes":[2.4861413E-1,5.3774226E-1,0E0,3.389231E-1,0E0,5.473932E-1,6.857403E-1,0E0,0E0,0E0,4.7892782E-1,5.26319E-1,1.5010412E0,0E0,0E0,0E0,0E0],"parents":[2147483647,0,0,1,1,3,3,5,5,6,6,10,10,11,11,12,12],"right_children":[2,4,-1,6,-1,8,10,-1,-1,-1,12,14,16,-1,-1,-1,-1],"split_conditions":[1.1970775E2,1.1318273E2,-1.0321147E-1,1.4549718E2,1.4355318E-1,1.4039961E2,1.460491E2,-1.7381063E-1,4.8609592E-2,1.7026472E-1,1.5053114E2,1.3834425E2,1.5143964E2,7.7336165E-3,-1.802048E-1,2.2788498E-1,-4.701959E-3],"split_indices":[5,5,0,0,0,3,0,0,0,0,0,1,0,0,0,0,0],"split_type":[0,0,0,0,0,0,0,0,0,0,0,0,0,0,0,0,0],"sum_hessian":[7.654359E1,7.548375E1,1.0598377E0,7.412905E1,1.3547008E0,2.5564692E0,7.157258E1,1.4740715E0,1.0823978E0,1.1265024E0,7.0446075E1,4.2156863E0,6.623039E1,2.4576418E0,1.7580442E0,1.5963882E0,6.4634E1],"tree_param":{"num_deleted":"0","num_feature":"6","num_nodes":"17","size_leaf_vector":"1"}},{"base_weights":[8.5477176E-4,-9.494523E-2,9.913741E-3,1.107905E-1,-4.369654E-3,-1.4079662E-1,1.1646496E-2,1.5646592E-1,-6.332807E-3,-2.0636293E-1,1.8395698E-2,7.1532816E-2,-1.2834883E-1,1.5253799E-1,3.591545E-5],"categories":[],"categories_nodes":[],"categories_segments":[],"categories_sizes":[],"default_left":[0,0,0,0,0,0,0,0,0,0,0,0,0,0,0],"id":28,"left_children":[1,-1,3,-1,5,-1,7,-1,9,11,13,-1,-1,-1,-1],"loss_changes":[2.247472E-1,0E0,3.9132234E-1,0E0,5.565584E-1,0E0,6.681116E-1,0E0,3.551624E-1,8.799616E-1,5.74375E-1,0E0,0E0,0E0,0E0],"parents":[2147483647,0,0,2,2,4,4,6,6,8,8,9,9,10,10],"right_children":[2,-1,4,-1,6,-1,8,-1,10,12,14,-1,-1,-1,-1],"split_conditions":[1.2685737E2,-9.494523E-2,1.347174E2,1.107905E-1,1.3322044E2,-1.4079662E-1,1.3403131E2,1.5646592E-1,1.3745033E2,9.927467E1,1.3979602E2,7.1532816E-2,-1.2834883E-1,1.5253799E-1,3.591545E-5],"split_indices":[1,0,3,0,1,0,1,0,1,5,3,0,0,0,0],"split_type":[0,0,0,0,0,0,0,0,0,0,0,0,0,0,0],"sum_hessian":[7.6087975E1,1.169902E0,7.491807E1,1.9136235E0,7.300445E1,1.4885473E0,7.15159E1,1.481821E0,7.003408E1,6.897193E0,6.3136887E1,2.2671227E0,4.63007E0,1.3056306E0,6.1831257E1],"tree_param":{"num_deleted":"0","num_feature":"6","num_nodes":"15","size_leaf_vector":"1"}},{"base_weights":[2.1523763E-3,9.726107E-2,-2.938494E-2,2.3551193E-1,-4.0580052E-1,-2.8671104E-1,1.628841E-2,-2.6771521E-2,4.8180485E-1,-2.0275709E-1,7.740745E-2,2.3498071E-2,-1.6291688E-1,4.7066966E-1,-1.8937802E-2,1.2432317E-1,-3.1263772E-1,6.4244795E-1,8.997445E-2,-2.379073E-1,1.3366358E-1,2.4054518E-1,-1.2462086E-2,-2.1727219E-1,1.499363E-2,-1.9791141E-1,1.016277E-1,2.1399016E-2,-1.5935373E-1,2.1092264E-2,2.607277E-1,-1.0604369E-1,1.2198072E-1,3.1482585E-2,-1.2231363E-1,3.9965275E-1,-2.9935045E-2,-8.802882E-3,-8.125647E-2,4.499033E-2,1.96905E-1,-1.0125618E-1,9.0905875E-3],"categories":[],"categories_nodes":[],"categories_segments":[],"categories_sizes":[],"default_left":[0,0,0,0,0,0,0,0,0,0,0,0,0,0,0,0,0,0,0,0,0,0,0,0,0,0,0,0,0,0,0,0,0,0,0,0,0,0,0,0,0,0,0],"id":29,"left_children":[1,3,5,7,9,11,13,15,17,-1,-1,19,-1,21,23,25,27,29,31,33,-1,-1,-1,-1,35,37,-1,-1,-1,-1,-1,-1,-1,-1,-1,39,41,-1,-1,-1,-1,-1,-1],"loss_changes":[2.3294076E-1,1.440207E0,6.907364E-1,1.0334678E0,9.8739696E-1,7.16749E-1,8.1756055E-1,4.102537E-1,4.5836425E-1,0E0,0E0,6.5366924E-1,0E0,6.56407E-1,1.1559428E0,5.051725E-1,3.1125078E-1,6.719415E-1,6.4179695E-1,2.5920197E-1,0E0,0E0,0E0,0E0,8.1785107E-1,3.0965723E-2,0E0,0E0,0E0,0E0,0E0,0E0,0E0,0E0,0E0,2.1861398E-1,8.010852E-1,0E0,0E0,0E0,0E0,0E0,0E0],"parents":[2147483647,0,0,1,1,2,2,3,3,4,4,5,5,6,6,7,7,8,8,11,11,13,13,14,14,15,15,16,16,17,17,18,18,19,19,24,24,25,25,35,35,36,36],"right_children":[2,4,6,8,10,12,14,16,18,-1,-1,20,-1,22,24,26,28,30,32,34,-1,-1,-1,-1,36,38,-1,-1,-1,-1,-1,-1,-1,-1,-1,40,42,-1,-1,-1,-1,-1,-1],"split_conditions":[1.5417888E2,1.3508417E2,1.4386484E2,1.3733972E2,1.4535165E2,1.3706001E2,1.4143985E2,1.3772055E2,1.4282985E2,-2.0275709E-1,7.740745E-2,1.3606781E2,-1.6291688E-1,1.4461668E2,1.4197398E2,1.3157088E2,1.1927488E2,1.5012102E2,1.4440672E2,1.0891738E2,1.3366358E-1,2.4054518E-1,-1.2462086E-2,-2.1727219E-1,1.467408E2,1.4439027E2,1.016277E-1,2.1399016E-2,-1.5935373E-1,2.1092264E-2,2.607277E-1,-1.0604369E-1,1.2198072E-1,3.1482585E-2,-1.2231363E-1,1.5777011E2,1.4695436E2,-8.802882E-3,-8.125647E-2,4.499033E-2,1.96905E-1,-1.0125618E-1,9.0905875E-3],"split_indices":[0,2,3,1,2,1,1,3,1,0,0,1,0,3,1,1,2,0,3,2,0,0,0,0,3,0,0,0,0,0,0,0,0,0,0,0,1,0,0,0,0,0,0],"split_type":[0,0,0,0,0,0,0,0,0,0,0,0,0,0,0,0,0,0,0,0,0,0,0,0,0,0,0,0,0,0,0,0,0,0,0,0,0,0,0,0,0,0,0],"sum_hessian":[7.5707726E1,1.8333738E1,5.737399E1,1.47986355E1,3.5351026E0,7.852901E0,4.9521088E1,7.598309E0,7.200326E0,2.4999514E0,1.0351511E0,3.9641402E0,3.8887608E0,2.6735642E0,4.6847523E1,5.3406215E0,2.2576876E0,4.6530538E0,2.5472722E0,2.717371E0,1.2467692E0,1.280381E0,1.3931832E0,1.2165216E0,4.5631E1,2.164727E0,3.1758947E0,1.0632359E0,1.1944516E0,1.691996E0,2.961058E0,1.0126371E0,1.5346351E0,1.02659E0,1.6907809E0,3.9466121E0,4.1684387E1,1.0773344E0,1.0873926E0,2.8037107E0,1.1429012E0,6.0726542E0,3.5611736E1],"tree_param":{"num_deleted":"0","num_feature":"6","num_nodes":"43","size_leaf_vector":"1"}},{"base_weights":[2.0325624E-3,1.9298902E-2,-1.8822221E-1,4.528668E-3,1.201548E-1,2.1081733E-2,-1.4903446E-1,9.664726E-2,-3.8359653E-2,-8.424133E-2,1.9145215E-1,-1.6198318E-2,4.8376945E-1,-3.3031708E-1,-4.8488113E-3,7.775999E-2,1.0059259E-2,9.796643E-2,-4.4046372E-1,-5.7525497E-2,7.646955E-1,6.7493096E-2,-5.32207E-1,3.517986E-1,-3.0510442E-2,-2.6485348E-2,1.1690434E-1,-2.1870746E-1,6.296599E-2,2.689383E-1,7.0734635E-2,-2.1882464E-1,-5.301968E-2,1.546715E-1,3.9879424E-3,1.2018288E-4,-1.523447E-1],"categories":[],"categories_nodes":[],"categories_segments":[],"categories_sizes":[],"default_left":[0,0,0,0,0,0,0,0,0,0,0,0,0,0,0,0,0,0,0,0,0,0,0,0,0,0,0,0,0,0,0,0,0,0,0,0,0],"id":30,"left_children":[1,3,5,7,-1,9,-1,11,13,-1,15,17,19,21,23,-1,-1,25,27,-1,29,-1,31,33,35,-1,-1,-1,-1,-1,-1,-1,-1,-1,-1,-1,-1],"loss_changes":[2.517215E-1,3.9314964E-1,4.222918E-1,2.7449647E-1,0E0,2.985112E-1,0E0,9.714238E-1,4.629547E-1,0E0,3.0215576E-2,9.172627E-1,1.0975629E0,6.661493E-1,4.0984532E-1,0E0,0E0,8.51463E-1,9.0525854E-1,0E0,4.9253225E-2,0E0,1.4249456E-1,1.5984482E-1,6.1399347E-1,0E0,0E0,0E0,0E0,0E0,0E0,0E0,0E0,0E0,0E0,0E0,0E0],"parents":[2147483647,0,0,1,1,2,2,3,3,5,5,7,7,8,8,10,10,11,11,12,12,13,13,14,14,17,17,18,18,20,20,22,22,23,23,24,24],"right_children":[2,4,6,8,-1,10,-1,12,14,-1,16,18,20,22,24,-1,-1,26,28,-1,30,-1,32,34,36,-1,-1,-1,-1,-1,-1,-1,-1,-1,-1,-1,-1],"split_conditions":[1.407228E2,1.3944426E2,1.1054997E2,1.4544667E2,1.201548E-1,1.5196747E2,-1.4903446E-1,1.4440672E2,1.5545961E2,-8.424133E-2,1.5430997E2,1.4365425E2,1.2455954E2,1.3017879E2,1.5648076E2,7.775999E-2,1.0059259E-2,1.25926575E2,1.3058319E2,-5.7525497E-2,1.2916476E2,6.7493096E-2,1.3482854E2,1.3208315E2,1.302658E2,-2.6485348E-2,1.1690434E-1,-2.1870746E-1,6.296599E-2,2.689383E-1,7.0734635E-2,-2.1882464E-1,-5.301968E-2,1.546715E-1,3.9879424E-3,1.2018288E-4,-1.523447E-1],"split_indices":[4,4,2,3,0,0,0,3,0,0,0,3,2,2,0,0,0,2,4,0,2,0,2,2,4,0,0,0,0,0,0,0,0,0,0,0,0],"split_type":[0,0,0,0,0,0,0,0,0,0,0,0,0,0,0,0,0,0,0,0,0,0,0,0,0,0,0,0,0,0,0,0,0,0,0,0,0],"sum_hessian":[7.452169E1,6.914507E1,5.3766136E0,6.7540115E1,1.6049584E0,3.758679E0,1.6179347E0,2.1057611E1,4.6482506E1,1.1221308E0,2.636548E0,1.7046684E1,4.0109277E0,3.8739927E0,4.2608513E1,1.3962408E0,1.2403072E0,1.4038251E1,3.0084336E0,1.2713181E0,2.7396097E0,1.0024421E0,2.8715506E0,2.0069287E0,4.060158E1,8.993522E0,5.0447288E0,2.000041E0,1.0083927E0,1.6369051E0,1.1027046E0,1.1703326E0,1.701218E0,1.0000231E0,1.0069057E0,3.9070477E1,1.531106E0],"tree_param":{"num_deleted":"0","num_feature":"6","num_nodes":"37","size_leaf_vector":"1"}},{"base_weights":[8.5046416E-4,1.3139376E-2,-2.145108E-1,-3.6194024E-3,3.1935948E-1,-1.2773809E-1,5.7180878E-2,2.034321E-2,-2.7753523E-1,1.4102314E-1,1.3865527E-2,-9.902055E-3,4.0889582E-1,-2.1321823E-1,3.517991E-2,1.2033935E-2,-1.7654054E-1,-2.6227965E-3,2.1481791E-1,2.6935464E-1,-1.01534165E-1,-4.3667643E-3,1.4521775E-1,1.14646114E-1,7.3121497E-3],"categories":[],"categories_nodes":[],"categories_segments":[],"categories_sizes":[],"default_left":[0,0,0,0,0,0,0,0,0,0,0,0,0,0,0,0,0,0,0,0,0,0,0,0,0],"id":31,"left_children":[1,3,5,7,9,-1,-1,11,13,-1,-1,15,17,-1,19,21,-1,-1,-1,23,-1,-1,-1,-1,-1],"loss_changes":[2.002431E-1,3.681477E-1,4.3077034E-1,4.571681E-1,1.3149157E-1,0E0,0E0,7.583819E-1,7.8389406E-1,0E0,0E0,7.7528125E-1,6.0396785E-1,0E0,4.591881E-1,7.5129753E-1,0E0,0E0,0E0,7.752477E-2,0E0,0E0,0E0,0E0,0E0],"parents":[2147483647,0,0,1,1,2,2,3,3,4,4,7,7,8,8,11,11,12,12,14,14,15,15,19,19],"right_children":[2,4,6,8,10,-1,-1,12,14,-1,-1,16,18,-1,20,22,-1,-1,-1,24,-1,-1,-1,-1,-1],"split_conditions":[1.7081561E2,1.6432693E2,1.6283308E2,1.6326079E2,1.4885016E2,-1.2773809E-1,5.7180878E-2,1.5823807E2,1.6431186E2,1.4102314E-1,1.3865527E-2,1.5741243E2,1.4733138E2,-2.1321823E-1,1.6549678E2,1.5618394E2,-1.7654054E-1,-2.6227965E-3,2.1481791E-1,1.435074E2,-1.01534165E-1,-4.3667643E-3,1.4521775E-1,1.14646114E-1,7.3121497E-3],"split_indices":[3,1,2,3,2,0,0,1,3,0,0,1,2,0,3,1,0,0,0,2,0,0,0,0,0],"split_type":[0,0,0,0,0,0,0,0,0,0,0,0,0,0,0,0,0,0,0,0,0,0,0,0,0],"sum_hessian":[7.3596794E1,7.051222E1,3.084569E0,6.779038E1,2.721844E0,1.9937186E0,1.0908504E0,6.3188297E1,4.6020856E0,1.2893713E0,1.4324727E0,5.9529022E1,3.659274E0,1.3957895E0,3.206296E0,5.8297894E1,1.2311285E0,1.9624909E0,1.6967832E0,2.1425266E0,1.0637695E0,5.6106503E1,2.191392E0,1.0836413E0,1.0588852E0],"tree_param":{"num_deleted":"0","num_feature":"6","num_nodes":"25","size_leaf_vector":"1"}},{"base_weights":[7.6971785E-4,4.5669295E-2,-6.9999926E-2,6.0920133E-3,2.1718438E-1,-3.9465135E-1,1.7673094E-2,6.876646E-2,-2.6589483E-1,3.3667278E-2,-5.1571876E-1,4.3739685E-1,-6.688346E-2,-1.0269828E-2,3.687512E-1,-2.0298208E-1,-1.1096579E-1,-2.3451427E-1,-1.3185637E-1,1.719225E-2,1.6438532E-1,-2.0143892E-1,4.007577E-2,3.8247835E-2,-1.5024093E-1,-2.7264325E-2,5.0972426E-1,-2.926587E-1,1.4945635E-1,1.1390468E-1,-1.9352713E-1,5.9774363E-1,-8.623399E-2,-3.9748796E-3,1.8879929E-1,2.6605737E-1,3.4996793E-2,-2.1081851E-1,-8.548417E-3,1.3457399E-2,2.8182968E-1,-2.0268025E-1,1.3599095E-3],"categories":[],"categories_nodes":[],"categories_segments":[],"categories_sizes":[],"default_left":[0,0,0,0,0,0,0,0,0,0,0,0,0,0,0,0,0,0,0,0,0,0,0,0,0,0,0,0,0,0,0,0,0,0,0,0,0,0,0,0,0,0,0],"id":32,"left_children":[1,3,5,7,-1,9,11,13,15,-1,17,19,21,23,25,-1,27,-1,29,-1,-1,-1,31,33,-1,-1,35,37,-1,-1,-1,39,41,-1,-1,-1,-1,-1,-1,-1,-1,-1,-1],"loss_changes":[2.3884125E-1,1.229846E0,8.3757436E-1,7.760364E-1,0E0,4.4127738E-1,8.7867415E-1,8.7918264E-1,4.6771163E-1,0E0,4.3011332E-1,1.4280653E-1,1.3711727E0,7.3778635E-1,5.469514E-1,0E0,9.6371716E-1,0E0,1.1218885E0,0E0,0E0,0E0,1.3621882E0,8.7301177E-1,0E0,0E0,7.954743E-1,6.648254E-1,0E0,0E0,0E0,6.308081E-1,8.613703E-1,0E0,0E0,0E0,0E0,0E0,0E0,0E0,0E0,0E0,0E0],"parents":[2147483647,0,0,1,1,2,2,3,3,5,5,6,6,7,7,8,8,10,10,11,11,12,12,13,13,14,14,16,16,18,18,22,22,23,23,26,26,27,27,31,31,32,32],"right_children":[2,4,6,8,-1,10,12,14,16,-1,18,20,22,24,26,-1,28,-1,30,-1,-1,-1,32,34,-1,-1,36,38,-1,-1,-1,40,42,-1,-1,-1,-1,-1,-1,-1,-1,-1,-1],"split_conditions":[1.4967763E2,1.4917586E2,1.5511275E2,1.6149196E2,2.1718438E-1,1.5648076E2,1.5649524E2,1.5833583E2,1.6250502E2,3.3667278E-2,1.5106635E2,1.6179561E2,1.581336E2,1.5772238E2,1.4412064E2,-2.0298208E-1,9.214735E1,-2.3451427E-1,1.5211511E2,1.719225E-2,1.6438532E-1,-2.0143892E-1,1.5955397E2,1.5744485E2,-1.5024093E-1,-2.7264325E-2,1.4293152E2,1.640302E2,1.4945635E-1,1.1390468E-1,-1.9352713E-1,1.4225351E2,1.6004826E2,-3.9748796E-3,1.8879929E-1,2.6605737E-1,3.4996793E-2,-2.1081851E-1,-8.548417E-3,1.3457399E-2,2.8182968E-1,-2.0268025E-1,1.3599095E-3],"split_indices":[1,1,3,0,0,0,3,0,0,0,1,0,3,0,3,0,5,0,1,0,0,0,3,0,0,0,1,0,0,0,0,2,3,0,0,0,0,0,0,0,0,0,0],"split_type":[0,0,0,0,0,0,0,0,0,0,0,0,0,0,0,0,0,0,0,0,0,0,0,0,0,0,0,0,0,0,0,0,0,0,0,0,0,0,0,0,0,0,0],"sum_hessian":[7.315968E1,4.4978127E1,2.8181557E1,4.3451717E1,1.5264088E0,5.24777E0,2.2933786E1,3.5921444E1,7.5302763E0,1.0258527E0,4.221917E0,3.1457934E0,1.9787992E1,2.9195213E1,6.7262297E0,1.1402649E0,6.390012E0,1.8816168E0,2.3403E0,1.0509512E0,2.0948422E0,2.1811948E0,1.7606798E1,2.7406517E1,1.7886957E0,1.6621717E0,5.064058E0,5.3221374E0,1.0678744E0,1.3024094E0,1.0378907E0,2.562184E0,1.5044615E1,2.6109354E1,1.2971631E0,1.9432969E0,3.120761E0,1.4347438E0,3.8873935E0,1.4107445E0,1.1514395E0,1.1478934E0,1.3896721E1],"tree_param":{"num_deleted":"0","num_feature":"6","num_nodes":"43","size_leaf_vector":"1"}},{"base_weights":[-8.8426255E-4,3.8797494E-2,-8.248185E-2,4.2934552E-1,-2.366953E-3,6.541584E-3,-2.2507177E-1,-1.5470713E-1,2.5591603E-1,3.1930838E-2,-2.0047691E-1,-5.0552707E-2,1.231234E-1,-1.8834602E-2,5.2573913E-1,-1.9548652E-1,1.405821E-2,4.2335607E-2,-4.2413098E-1,3.0554536E-1,-4.114298E-2,2.6854718E-1,-1.5975332E-1,-1.5884008E-2,7.9367206E-2,-2.4092166E-1,5.7039957E-2,2.163998E-2,2.4667935E-1,-1.9983134E-1,-1.4591725E-2],"categories":[],"categories_nodes":[],"categories_segments":[],"categories_sizes":[],"default_left":[0,0,0,0,0,0,0,0,0,0,0,0,0,0,0,0,0,0,0,0,0,0,0,0,0,0,0,0,0,0,0],"id":33,"left_children":[1,3,5,7,9,11,-1,-1,-1,13,-1,15,-1,17,19,-1,21,23,25,-1,-1,27,29,-1,-1,-1,-1,-1,-1,-1,-1],"loss_changes":[2.4035023E-1,8.0416363E-1,1.4484897E0,2.349504E0,1.0762104E0,5.3769094E-1,0E0,0E0,0E0,1.1349765E0,0E0,8.065424E-1,0E0,1.0508392E0,1.5175244E0,0E0,9.0625423E-1,7.997195E-1,1.4455173E0,0E0,0E0,8.427055E-1,6.5538174E-1,0E0,0E0,0E0,0E0,0E0,0E0,0E0,0E0],"parents":[2147483647,0,0,1,1,2,2,3,3,4,4,5,5,9,9,11,11,13,13,14,14,16,16,17,17,18,18,21,21,22,22],"right_children":[2,4,6,8,10,12,-1,-1,-1,14,-1,16,-1,18,20,-1,22,24,26,-1,-1,28,30,-1,-1,-1,-1,-1,-1,-1,-1],"split_conditions":[1.3818085E2,1.1903788E2,1.1496463E2,1.5595E2,1.3511728E2,1.1361814E2,-2.2507177E-1,-1.5470713E-1,2.5591603E-1,1.338523E2,-2.0047691E-1,1.4225351E2,1.231234E-1,1.3211977E2,1.5688292E2,-1.9548652E-1,1.5948863E2,1.4457683E2,1.5045966E2,3.0554536E-1,-4.114298E-2,1.581336E2,1.6062532E2,-1.5884008E-2,7.9367206E-2,-2.4092166E-1,5.7039957E-2,2.163998E-2,2.4667935E-1,-1.9983134E-1,-1.4591725E-2],"split_indices":[2,4,4,0,2,4,0,0,0,2,0,2,0,2,0,0,3,1,3,0,0,3,3,0,0,0,0,0,0,0,0],"split_type":[0,0,0,0,0,0,0,0,0,0,0,0,0,0,0,0,0,0,0,0,0,0,0,0,0,0,0,0,0,0,0],"sum_hessian":[7.224115E1,4.8957256E1,2.3283895E1,3.7689836E0,4.518827E1,2.141863E1,1.8652649E0,1.0995231E0,2.6694605E0,4.388019E1,1.3080778E0,1.9532227E1,1.8864042E0,4.0661854E1,3.2183404E0,1.013977E0,1.851825E1,3.6107758E1,4.5540953E0,1.5383664E0,1.679974E0,7.2938266E0,1.1224422E1,2.5805037E1,1.030272E1,2.6264555E0,1.92764E0,6.218337E0,1.0754896E0,1.1210392E0,1.0103383E1],"tree_param":{"num_deleted":"0","num_feature":"6","num_nodes":"31","size_leaf_vector":"1"}},{"base_weights":[-5.377679E-3,9.059909E-2,-3.670032E-2,1.9685665E-1,-3.142389E-1,-3.2984793E-1,-1.0614166E-2,-3.908375E-3,3.947604E-1,3.0346297E-2,-1.6175765E-1,-1.7082566E-1,-4.2724935E-3,-4.119788E-2,1.8855365E-1,1.2960735E-1,-2.5580496E-1,2.1129851E-1,1.8112695E-1,-1.0592412E-2,-1.6671598E-1,-1.5000652E-1,9.1464065E-2,1.8212253E-2,-1.3155296E-1,-1.2593761E-1,4.2965743E-1,-3.8973074E-2,1.4480914E-1,-6.594007E-2,-1.7692749E-3,2.2146331E-1,2.7447607E-2,-1.5593217E-1,-2.7150617E-4],"categories":[],"categories_nodes":[],"categories_segments":[],"categories_sizes":[],"default_left":[0,0,0,0,0,0,0,0,0,0,0,0,0,0,0,0,0,0,0,0,0,0,0,0,0,0,0,0,0,0,0,0,0,0,0],"id":34,"left_children":[1,3,5,7,9,11,13,15,17,-1,-1,-1,-1,19,-1,21,23,-1,25,27,-1,29,-1,-1,-1,-1,31,33,-1,-1,-1,-1,-1,-1,-1],"loss_changes":[2.2084993E-1,8.401362E-1,4.1911867E-1,5.95367E-1,4.4201416E-1,3.3083224E-1,1.0380814E0,3.1598058E-1,3.7083173E-1,0E0,0E0,0E0,0E0,7.870847E-1,0E0,3.4762335E-1,2.1453388E-1,0E0,1.0473623E0,6.984871E-1,0E0,2.9317066E-2,0E0,0E0,0E0,0E0,4.1253328E-1,8.567154E-1,0E0,0E0,0E0,0E0,0E0,0E0,0E0],"parents":[2147483647,0,0,1,1,2,2,3,3,4,4,5,5,6,6,7,7,8,8,13,13,15,15,16,16,18,18,19,19,21,21,26,26,27,27],"right_children":[2,4,6,8,10,12,14,16,18,-1,-1,-1,-1,20,-1,22,24,-1,26,28,-1,30,-1,-1,-1,-1,32,34,-1,-1,-1,-1,-1,-1,-1],"split_conditions":[1.5417888E2,1.3508417E2,1.5534111E2,1.3733972E2,1.4299289E2,1.4143985E2,9.924766E1,1.3772055E2,1.3990498E2,3.0346297E-2,-1.6175765E-1,-1.7082566E-1,-4.2724935E-3,9.868888E1,1.8855365E-1,1.3157088E2,1.1927488E2,2.1129851E-1,1.4237105E2,9.8250496E1,-1.6671598E-1,1.3145781E2,9.1464065E-2,1.8212253E-2,-1.3155296E-1,-1.2593761E-1,1.4282985E2,1.5744485E2,1.4480914E-1,-6.594007E-2,-1.7692749E-3,2.2146331E-1,2.7447607E-2,-1.5593217E-1,-2.7150617E-4],"split_indices":[0,2,0,1,0,1,5,3,1,0,0,0,0,5,0,1,2,0,3,5,0,3,0,0,0,0,1,0,0,0,0,0,0,0,0],"split_type":[0,0,0,0,0,0,0,0,0,0,0,0,0,0,0,0,0,0,0,0,0,0,0,0,0,0,0,0,0,0,0,0,0,0,0],"sum_hessian":[7.135766E1,1.7092253E1,5.4265404E1,1.394568E1,3.1465733E0,3.4827576E0,5.0782646E1,7.4094033E0,6.5362763E0,1.2987199E0,1.8478535E0,1.5226988E0,1.9600588E0,4.935637E1,1.4262793E0,5.1599092E0,2.2494938E0,1.7310205E0,4.805256E0,4.7548607E1,1.8077613E0,2.043714E0,3.1161954E0,1.0676532E0,1.1818408E0,1.204299E0,3.600957E0,4.5832687E1,1.7159206E0,1.0230178E0,1.0206963E0,1.2643414E0,2.3366156E0,2.4342475E0,4.3398438E1],"tree_param":{"num_deleted":"0","num_feature":"6","num_nodes":"35","size_leaf_vector":"1"}},{"base_weights":[-4.693873E-3,3.9897744E-2,-7.498246E-2,7.115798E-3,1.7425807E-1,-3.8232058E-1,6.0248342E-3,6.44421E-2,-2.4184874E-1,-1.888185E-1,-1.9211198E-1,-4.5119334E-2,1.3263042E-1,2.6217181E-2,1.6237079E-1,1.1178338E-1,-3.832952E-1,-4.495438E-1,7.092953E-2,-1.5154544E-1,2.1275217E-2,5.8417954E-2,-1.4205518E-1,-4.769842E-2,9.707975E-2,-1.9127622E-1,-1.8352692E-1,4.1117E-3,-2.0287904E-1,-5.093881E-2,1.6612291E-1,-2.9299087E-3,1.1697571E-1,6.147382E-2,-1.6515379E-1,-4.2067237E-2,9.029643E-2],"categories":[],"categories_nodes":[],"categories_segments":[],"categories_sizes":[],"default_left":[0,0,0,0,0,0,0,0,0,0,0,0,0,0,0,0,0,0,0,0,0,0,0,0,0,0,0,0,0,0,0,0,0,0,0,0,0],"id":35,"left_children":[1,3,5,7,-1,9,11,13,15,17,-1,19,-1,21,-1,23,25,27,-1,-1,29,31,-1,-1,-1,-1,33,-1,-1,35,-1,-1,-1,-1,-1,-1,-1],"loss_changes":[2.2696555E-1,7.827972E-1,7.0152044E-1,6.2717223E-1,0E0,1.7239106E-1,5.376151E-1,6.350167E-1,4.5454198E-1,6.357007E-1,0E0,6.7298895E-1,0E0,5.752358E-1,0E0,2.307277E-1,1.9311059E-1,3.56359E-1,0E0,0E0,7.9365766E-1,7.465108E-1,0E0,0E0,0E0,0E0,8.0035853E-1,0E0,0E0,6.2178993E-1,0E0,0E0,0E0,0E0,0E0,0E0,0E0],"parents":[2147483647,0,0,1,1,2,2,3,3,5,5,6,6,7,7,8,8,9,9,11,11,13,13,15,15,16,16,17,17,20,20,21,21,26,26,29,29],"right_children":[2,4,6,8,-1,10,12,14,16,18,-1,20,-1,22,-1,24,26,28,-1,-1,30,32,-1,-1,-1,-1,34,-1,-1,36,-1,-1,-1,-1,-1,-1,-1],"split_conditions":[1.4967763E2,1.4917586E2,1.5511275E2,1.6149196E2,1.7425807E-1,1.5211511E2,1.2528965E2,1.4956506E2,1.1947823E2,1.5106635E2,-1.9211198E-1,1.3449165E2,1.3263042E-1,1.471754E2,1.6237079E-1,1.1471959E2,1.485727E2,1.5814265E2,7.092953E-2,-1.5154544E-1,1.176576E2,1.3355319E2,-1.4205518E-1,-4.769842E-2,9.707975E-2,-1.9127622E-1,1.5088426E2,4.1117E-3,-2.0287904E-1,9.09698E1,1.6612291E-1,-2.9299087E-3,1.1697571E-1,6.147382E-2,-1.6515379E-1,-4.2067237E-2,9.029643E-2],"split_indices":[1,1,3,0,0,1,4,3,2,1,0,2,0,1,0,2,3,0,0,0,4,2,0,0,0,0,3,0,0,5,0,0,0,0,0,0,0],"split_type":[0,0,0,0,0,0,0,0,0,0,0,0,0,0,0,0,0,0,0,0,0,0,0,0,0,0,0,0,0,0,0,0,0,0,0,0,0],"sum_hessian":[7.045941E1,4.33746E1,2.7084808E1,4.1851578E1,1.5230222E0,4.873892E0,2.2210917E1,3.4620956E1,7.230624E0,3.7749393E0,1.0989523E0,2.0681831E1,1.5290844E0,3.3028057E1,1.5928977E0,2.1257422E0,5.104882E0,2.3047473E0,1.470192E0,1.7749938E0,1.8906837E1,3.1858343E1,1.1697148E0,1.0424639E0,1.0832782E0,1.2817115E0,3.8231704E0,1.0660559E0,1.2386916E0,1.7445227E1,1.4616115E0,2.722844E1,4.6299033E0,2.0718417E0,1.7513286E0,1.4394768E1,3.0504587E0],"tree_param":{"num_deleted":"0","num_feature":"6","num_nodes":"37","size_leaf_vector":"1"}},{"base_weights":[-5.6314636E-3,3.2613836E-3,-8.9776024E-2,-9.067914E-3,1.1992043E-1,-2.7797842E-1,4.28805E-3,-1.0973532E-1,-1.9260224E-2,1.11321926E-1,-9.257478E-3,-2.603801E-1,7.926037E-3,-1.1780933E-1,9.900967E-3,1.6113067E-1,-3.6948777E-3],"categories":[],"categories_nodes":[],"categories_segments":[],"categories_sizes":[],"default_left":[0,0,0,0,0,0,0,0,0,0,0,0,0,0,0,0,0],"id":36,"left_children":[1,3,-1,5,-1,7,9,-1,-1,-1,11,13,15,-1,-1,-1,-1],"loss_changes":[1.851301E-1,3.4307614E-1,0E0,2.4658859E-1,0E0,3.7487447E-2,3.317291E-1,0E0,0E0,0E0,2.8125545E-1,1.7496386E-1,6.6567457E-1,0E0,0E0,0E0,0E0],"parents":[2147483647,0,0,1,1,3,3,5,5,6,6,10,10,11,11,12,12],"right_children":[2,4,-1,6,-1,8,10,-1,-1,-1,12,14,16,-1,-1,-1,-1],"split_conditions":[1.1891411E2,1.1318273E2,-8.9776024E-2,1.4549718E2,1.1992043E-1,1.2867914E2,1.4637828E2,-1.0973532E-1,-1.9260224E-2,1.11321926E-1,1.5053114E2,1.0669345E2,1.5143964E2,-1.1780933E-1,9.900967E-3,1.6113067E-1,-3.6948777E-3],"split_indices":[5,5,0,0,0,2,0,0,0,0,0,5,0,0,0,0,0],"split_type":[0,0,0,0,0,0,0,0,0,0,0,0,0,0,0,0,0],"sum_hessian":[6.952647E1,6.844246E1,1.0840055E0,6.732593E1,1.1165339E0,2.2481604E0,6.507777E1,1.0895808E0,1.1585795E0,1.37771E0,6.3700058E1,3.1732194E0,6.052684E1,1.9536135E0,1.2196059E0,1.289258E0,5.923758E1],"tree_param":{"num_deleted":"0","num_feature":"6","num_nodes":"17","size_leaf_vector":"1"}},{"base_weights":[-3.0772556E-3,1.0117466E-1,-2.4048442E-2,-6.7208996E-3,4.0015844E-1,-1.7798948E-1,-3.907504E-3,8.9560084E-2,-1.0889623E-1,1.5059187E-1,3.6780752E-2,2.3185582E-1,-2.3325512E-2,1.8052518E-1,-7.017145E-2,-1.0143867E-1,1.7496073E-1,-1.3829999E-1,1.6857713E-3,-1.067187E-4,1.2100592E-1,7.765254E-2,-1.2944342E-1,3.5982725E-1,-2.7505502E-2,-7.544579E-2,6.288172E-2,1.4764112E-1,1.3203601E-2,-1.4786454E-1,1.4361797E-3],"categories":[],"categories_nodes":[],"categories_segments":[],"categories_sizes":[],"default_left":[0,0,0,0,0,0,0,0,0,0,0,0,0,0,0,0,0,0,0,0,0,0,0,0,0,0,0,0,0,0,0],"id":37,"left_children":[1,3,5,7,9,-1,11,13,-1,-1,-1,15,17,19,-1,21,-1,-1,23,25,-1,-1,-1,27,29,-1,-1,-1,-1,-1,-1],"loss_changes":[1.5592071E-1,3.8816127E-1,6.770588E-1,3.6743316E-1,2.8468251E-2,0E0,2.7202109E-1,2.9200107E-1,0E0,0E0,0E0,5.8880657E-1,5.997226E-1,2.8943834E-1,0E0,4.889693E-1,0E0,0E0,5.6140804E-1,3.1475544E-1,0E0,0E0,0E0,1.474343E-1,7.493582E-1,0E0,0E0,0E0,0E0,0E0,0E0],"parents":[2147483647,0,0,1,1,2,2,3,3,4,4,6,6,7,7,11,11,12,12,13,13,15,15,18,18,19,19,23,23,24,24],"right_children":[2,4,6,8,10,-1,12,14,-1,-1,-1,16,18,20,-1,22,-1,-1,24,26,-1,-1,-1,28,30,-1,-1,-1,-1,-1,-1],"split_conditions":[1.3706001E2,1.3641357E2,1.376511E2,1.3561273E2,1.367316E2,-1.7798948E-1,1.3936157E2,1.5575235E2,-1.0889623E-1,1.5059187E-1,3.6780752E-2,1.3878018E2,1.4005194E2,1.5196747E2,-7.017145E-2,1.5228587E2,1.7496073E-1,-1.3829999E-1,1.4137003E2,1.1395128E2,1.2100592E-1,7.765254E-2,-1.2944342E-1,1.4428305E2,1.4197398E2,-7.544579E-2,6.288172E-2,1.4764112E-1,1.3203601E-2,-1.4786454E-1,1.4361797E-3],"split_indices":[1,1,1,1,1,0,1,0,0,0,0,1,1,0,0,0,0,0,1,2,0,0,0,3,1,0,0,0,0,0,0],"split_type":[0,0,0,0,0,0,0,0,0,0,0,0,0,0,0,0,0,0,0,0,0,0,0,0,0,0,0,0,0,0,0],"sum_hessian":[6.920472E1,1.094927E1,5.8255447E1,8.764065E0,2.185205E0,1.0182754E0,5.7237175E1,7.488826E0,1.2752393E0,1.0071944E0,1.1780107E0,3.5229619E0,5.371421E1,6.1899767E0,1.2988491E0,2.1729467E0,1.3500152E0,1.9613155E0,5.1752895E1,3.970707E0,2.2192698E0,1.1420149E0,1.0309318E0,3.0467265E0,4.870617E1,1.715349E0,2.255358E0,1.753709E0,1.2930175E0,2.2349553E0,4.6471214E1],"tree_param":{"num_deleted":"0","num_feature":"6","num_nodes":"31","size_leaf_vector":"1"}},{"base_weights":[-3.3419908E-3,-7.8337625E-2,6.8239565E-3,1.042746E-1,-7.562051E-3,5.888534E-3,-2.2140773E-1,-2.5065207E-1,1.9089904E-2,-1.1073131E-1,-1.5826143E-3,4.224282E-3,-1.15361445E-1,3.2552597E-1,-1.4286723E-2,1.2461558E-1,5.494141E-3,-1.0240199E-1,1.9524007E-3],"categories":[],"categories_nodes":[],"categories_segments":[],"categories_sizes":[],"default_left":[0,0,0,0,0,0,0,0,0,0,0,0,0,0,0,0,0,0,0],"id":38,"left_children":[1,-1,3,-1,5,7,9,11,13,-1,-1,-1,-1,15,17,-1,-1,-1,-1],"loss_changes":[1.8420425E-1,0E0,3.3570042E-1,0E0,1.916334E-1,2.189215E-1,1.2387814E-1,1.1760363E-1,6.291979E-1,0E0,0E0,0E0,0E0,1.5912545E-1,3.8323906E-1,0E0,0E0,0E0,0E0],"parents":[2147483647,0,0,2,2,4,4,5,5,6,6,7,7,8,8,13,13,14,14],"right_children":[2,-1,4,-1,6,8,10,12,14,-1,-1,-1,-1,16,18,-1,-1,-1,-1],"split_conditions":[1.409994E2,-7.8337625E-2,1.4439027E2,1.042746E-1,1.0732309E2,1.3322044E2,1.0930213E2,1.3056433E2,1.3706001E2,-1.1073131E-1,-1.5826143E-3,4.224282E-3,-1.15361445E-1,1.4027647E2,1.3878018E2,1.2461558E-1,5.494141E-3,-1.0240199E-1,1.9524007E-3],"split_indices":[0,0,0,0,5,1,5,1,1,0,0,0,0,3,1,0,0,0,0],"split_type":[0,0,0,0,0,0,0,0,0,0,0,0,0,0,0,0,0,0,0],"sum_hessian":[6.861058E1,1.6664792E0,6.69441E1,1.7735405E0,6.5170555E1,6.2228912E1,2.9416451E0,2.1652403E0,6.006367E1,1.327032E0,1.6146133E0,1.0277998E0,1.1374404E0,5.039757E0,5.5023914E1,3.6268072E0,1.4129496E0,2.3678794E0,5.2656036E1],"tree_param":{"num_deleted":"0","num_feature":"6","num_nodes":"19","size_leaf_vector":"1"}},{"base_weights":[-4.869085E-3,1.00039225E-2,-1.5297328E-1,-4.2986437E-3,1.3328826E-1,-1.4814192E-1,1.1068448E-1,1.6808314E-2,-1.8921436E-1,3.114166E-1,-7.9572976E-2,-1.7773423E-2,2.9128656E-1,1.15005665E-1,3.4893814E-2,2.90776E-2,-1.931938E-1,5.132923E-1,-7.6176554E-2,1.2958707E-1,-1.2184989E-3,-1.7487499E-1,1.5974924E-2,3.0132968E-2,2.5465432E-1],"categories":[],"categories_nodes":[],"categories_segments":[],"categories_sizes":[],"default_left":[0,0,0,0,0,0,0,0,0,0,0,0,0,0,0,0,0,0,0,0,0,0,0,0,0],"id":39,"left_children":[1,3,5,7,-1,-1,9,11,-1,13,-1,15,17,-1,-1,19,21,23,-1,-1,-1,-1,-1,-1,-1],"loss_changes":[1.5449676E-1,3.9972067E-1,6.2966025E-1,8.434787E-1,0E0,0E0,4.1649076E-1,5.9285855E-1,0E0,2.3501813E-3,0E0,4.65273E-1,9.758253E-1,0E0,0E0,6.0267395E-1,1.1758541E0,6.482636E-1,0E0,0E0,0E0,0E0,0E0,0E0,0E0],"parents":[2147483647,0,0,1,1,2,2,3,3,6,6,7,7,9,9,11,11,12,12,15,15,16,16,17,17],"right_children":[2,4,6,8,-1,-1,10,12,-1,14,-1,16,18,-1,-1,20,22,24,-1,-1,-1,-1,-1,-1,-1],"split_conditions":[1.8043803E2,1.7953561E2,1.6678088E2,1.6549678E2,1.3328826E-1,-1.4814192E-1,1.8166936E2,1.5823807E2,-1.8921436E-1,6.2860893E1,-7.9572976E-2,1.3710017E2,1.5291031E2,1.15005665E-1,3.4893814E-2,1.1903788E2,1.4225351E2,1.4733138E2,-7.6176554E-2,1.2958707E-1,-1.2184989E-3,-1.7487499E-1,1.5974924E-2,3.0132968E-2,2.5465432E-1],"split_indices":[0,0,1,3,0,0,3,1,0,5,0,2,2,0,0,4,2,2,0,0,0,0,0,0,0],"split_type":[0,0,0,0,0,0,0,0,0,0,0,0,0,0,0,0,0,0,0,0,0,0,0,0,0],"sum_hessian":[6.844324E1,6.304459E1,5.3986483E0,6.199306E1,1.0515276E0,1.9739699E0,3.424678E0,6.0913754E1,1.0793092E0,2.344437E0,1.0802413E0,5.4928513E1,5.985241E0,1.0079426E0,1.3364943E0,4.4008915E1,1.0919599E1,4.2949157E0,1.6903255E0,2.4301844E0,4.1578728E1,3.7012196E0,7.2183785E0,2.5082436E0,1.786672E0],"tree_param":{"num_deleted":"0","num_feature":"6","num_nodes":"25","size_leaf_vector":"1"}},{"base_weights":[-3.8867972E-3,3.4459613E-2,-6.432886E-2,7.316653E-3,1.4029433E-1,-3.499329E-1,9.453599E-3,3.2566022E-2,-1.4648521E-1,-8.052948E-2,-4.8202735E-1,1.2378774E-1,-3.8180687E-2,-9.894902E-3,4.399081E-1,3.3256426E-2,-6.8827584E-2,-3.0171093E-2,-1.992249E-1,-3.4359837E-1,4.338141E-2,4.3309398E-2,-1.8321522E-1,2.4450816E-1,-9.557019E-6,3.7168898E-2,-1.8278062E-1,4.663896E-1,-4.7279544E-2,1.7457934E-3,1.5654059E-1,3.9579265E-2,1.7512773E-1,-1.20872624E-1,7.2090286E-3],"categories":[],"categories_nodes":[],"categories_segments":[],"categories_sizes":[],"default_left":[0,0,0,0,0,0,0,0,0,0,0,0,0,0,0,0,0,0,0,0,0,0,0,0,0,0,0,0,0,0,0,0,0,0,0],"id":40,"left_children":[1,3,5,7,-1,9,11,13,-1,15,17,-1,19,21,23,-1,-1,-1,-1,25,27,29,-1,-1,-1,-1,-1,31,33,-1,-1,-1,-1,-1,-1],"loss_changes":[1.622409E-1,5.0092816E-1,5.754103E-1,5.3372496E-1,0E0,1.6046995E-1,4.4880548E-1,7.0159894E-1,0E0,1.1214751E-1,1.8023664E-1,0E0,5.4006296E-1,1.2247032E0,6.3166714E-1,0E0,0E0,0E0,0E0,6.4126635E-1,6.941914E-1,6.314434E-1,0E0,0E0,0E0,0E0,0E0,4.8027158E-2,3.9872524E-1,0E0,0E0,0E0,0E0,0E0,0E0],"parents":[2147483647,0,0,1,1,2,2,3,3,5,5,6,6,7,7,9,9,10,10,12,12,13,13,14,14,19,19,20,20,21,21,27,27,28,28],"right_children":[2,4,6,8,-1,10,12,14,-1,16,18,-1,20,22,24,-1,-1,-1,-1,26,28,30,-1,-1,-1,-1,-1,32,34,-1,-1,-1,-1,-1,-1],"split_conditions":[1.4967763E2,1.4917586E2,1.5511275E2,1.4886101E2,1.4029433E-1,1.3634059E2,1.5579192E2,1.4778635E2,-1.4648521E-1,1.5303076E2,1.121051E2,1.2378774E-1,1.581336E2,1.4880565E2,1.4795753E2,3.3256426E-2,-6.8827584E-2,-3.0171093E-2,-1.992249E-1,1.5439482E2,1.5955397E2,1.4806958E2,-1.8321522E-1,2.4450816E-1,-9.557019E-6,3.7168898E-2,-1.8278062E-1,1.4201317E2,1.6032872E2,1.7457934E-3,1.5654059E-1,3.9579265E-2,1.7512773E-1,-1.20872624E-1,7.2090286E-3],"split_indices":[1,1,3,1,0,2,3,1,0,3,4,0,3,3,1,0,0,0,0,1,3,3,0,0,0,0,0,2,3,0,0,0,0,0,0],"split_type":[0,0,0,0,0,0,0,0,0,0,0,0,0,0,0,0,0,0,0,0,0,0,0,0,0,0,0,0,0,0,0,0,0,0,0],"sum_hessian":[6.80433E1,4.1894154E1,2.6149141E1,4.038084E1,1.5133164E0,4.6000543E0,2.1549088E1,3.9312286E1,1.0685533E0,2.0430133E0,2.5570412E0,1.4673344E0,2.0081753E1,3.6484848E1,2.8274353E0,1.0057515E0,1.0372618E0,1.3276539E0,1.2293872E0,3.5554147E0,1.6526339E1,3.436928E1,2.1155677E0,1.0659528E0,1.7614826E0,1.4817159E0,2.0736985E0,2.1853852E0,1.4340953E1,3.281071E1,1.558571E0,1.1194474E0,1.0659379E0,1.6186137E0,1.272234E1],"tree_param":{"num_deleted":"0","num_feature":"6","num_nodes":"35","size_leaf_vector":"1"}},{"base_weights":[-3.1967189E-3,-2.4736192E-2,8.384666E-2,6.6562872E-3,-4.523698E-1,3.81064E-1,-6.2137548E-2,2.122595E-1,-2.0542117E-2,1.0555211E-3,-1.9018742E-1,-3.6710512E-2,5.939152E-1,6.627721E-2,-1.578832E-1,-5.545001E-2,4.22745E-1,3.9613233E-3,-1.3702904E-1,2.1537338E-1,5.0948482E-2,-3.3697897E-1,1.0318216E-1,1.7737536E-1,1.9375001E-3,2.619484E-1,-3.5615157E-2,-1.9118237E-1,-3.6149874E-2,1.2567312E-1,-4.6439663E-2,1.4900659E-1,-7.217968E-2,-1.1177814E-1,-1.5880136E-3,-9.4109826E-2,6.1954264E-2],"categories":[],"categories_nodes":[],"categories_segments":[],"categories_sizes":[],"default_left":[0,0,0,0,0,0,0,0,0,0,0,0,0,0,0,0,0,0,0,0,0,0,0,0,0,0,0,0,0,0,0,0,0,0,0,0,0],"id":41,"left_children":[1,3,5,7,9,11,13,15,17,-1,-1,-1,19,-1,21,-1,23,25,-1,-1,-1,27,29,-1,-1,31,33,-1,35,-1,-1,-1,-1,-1,-1,-1,-1],"loss_changes":[1.302999E-1,7.493756E-1,6.222148E-1,2.9951307E-1,3.1819683E-1,5.745917E-1,3.088992E-1,6.009135E-1,5.098099E-1,0E0,0E0,0E0,6.0175776E-2,0E0,4.152851E-1,0E0,3.0426872E-1,4.7889373E-1,0E0,0E0,0E0,4.3419653E-1,3.9692405E-1,0E0,0E0,8.551979E-1,4.1443595E-1,0E0,3.0647933E-1,0E0,0E0,0E0,0E0,0E0,0E0,0E0,0E0],"parents":[2147483647,0,0,1,1,2,2,3,3,4,4,5,5,6,6,7,7,8,8,12,12,14,14,16,16,17,17,21,21,22,22,25,25,26,26,28,28],"right_children":[2,4,6,8,10,12,14,16,18,-1,-1,-1,20,-1,22,-1,24,26,-1,-1,-1,28,30,-1,-1,32,34,-1,36,-1,-1,-1,-1,-1,-1,-1,-1],"split_conditions":[1.3445631E2,1.3138905E2,1.3616374E2,1.2634651E2,1.3834425E2,1.3963962E2,1.347174E2,1.4005194E2,1.278832E2,1.0555211E-3,-1.9018742E-1,-3.6710512E-2,1.419564E2,6.627721E-2,1.5688292E2,-5.545001E-2,1.5933177E2,1.4282985E2,-1.3702904E-1,2.1537338E-1,5.0948482E-2,1.0202907E2,1.5865102E2,1.7737536E-1,1.9375001E-3,1.3511728E2,1.2867914E2,-1.9118237E-1,1.5053114E2,1.2567312E-1,-4.6439663E-2,1.4900659E-1,-7.217968E-2,-1.1177814E-1,-1.5880136E-3,-9.4109826E-2,6.1954264E-2],"split_indices":[4,4,4,2,1,3,3,1,4,0,0,0,3,0,0,0,0,1,0,0,0,5,0,0,0,2,2,0,0,0,0,0,0,0,0,0,0],"split_type":[0,0,0,0,0,0,0,0,0,0,0,0,0,0,0,0,0,0,0,0,0,0,0,0,0,0,0,0,0,0,0,0,0,0,0,0,0],"sum_hessian":[6.7391914E1,5.459727E1,1.2794647E1,5.178051E1,2.8167598E0,3.6839597E0,9.110687E0,5.254629E0,4.6525883E1,1.0817031E0,1.7350568E0,1.22105E0,2.4629095E0,1.9723231E0,7.1383643E0,1.8625997E0,3.3920293E0,4.498964E1,1.5362408E0,1.3696165E0,1.0932931E0,4.06139E0,3.0769742E0,2.1154363E0,1.276593E0,5.236393E0,3.9753246E1,1.4728038E0,2.5885863E0,1.1031226E0,1.9738516E0,3.5771582E0,1.6592349E0,2.3498943E0,3.7403355E1,1.0709478E0,1.5176384E0],"tree_param":{"num_deleted":"0","num_feature":"6","num_nodes":"37","size_leaf_vector":"1"}},{"base_weights":[-3.976794E-3,-7.7475205E-2,3.7921374E-3,1.033252E-1,-1.05135245E-2,-1.0871024E-1,1.3725994E-3,1.3800292E-1,-1.562744E-2,-9.696612E-2,-3.1261514E-3,-9.7010955E-3,5.661292E-2],"categories":[],"categories_nodes":[],"categories_segments":[],"categories_sizes":[],"default_left":[0,0,0,0,0,0,0,0,0,0,0,0,0],"id":42,"left_children":[1,-1,3,-1,5,-1,7,-1,9,-1,11,-1,-1],"loss_changes":[1.3441958E-1,0E0,3.2782567E-1,0E0,2.715919E-1,0E0,5.0384325E-1,0E0,2.3889759E-1,0E0,3.4771943E-1,0E0,0E0],"parents":[2147483647,0,0,2,2,4,4,6,6,8,8,10,10],"right_children":[2,-1,4,-1,6,-1,8,-1,10,-1,12,-1,-1],